{"learner":{"attributes":{"scikit_learn":"{\"_estimator_type\": \"regressor\"}"},"feature_names":["temperature_2m_mean","precipitation_sum","wind_speed_10m_max","wind_direction_10m_dominant"],"feature_types":["float","float","float","float"],"gradient_booster":{"model":{"gbtree_model_param":{"num_parallel_tree":"1","num_trees":"100"},"iteration_indptr":[0,1,2,3,4,5,6,7,8,9,10,11,12,13,14,15,16,17,18,19,20,21,22,23,24,25,26,27,28,29,30,31,32,33,34,35,36,37,38,39,40,41,42,43,44,45,46,47,48,49,50,51,52,53,54,55,56,57,58,59,60,61,62,63,64,65,66,67,68,69,70,71,72,73,74,75,76,77,78,79,80,81,82,83,84,85,86,87,88,89,90,91,92,93,94,95,96,97,98,99,100],"tree_info":[0,0,0,0,0,0,0,0,0,0,0,0,0,0,0,0,0,0,0,0,0,0,0,0,0,0,0,0,0,0,0,0,0,0,0,0,0,0,0,0,0,0,0,0,0,0,0,0,0,0,0,0,0,0,0,0,0,0,0,0,0,0,0,0,0,0,0,0,0,0,0,0,0,0,0,0,0,0,0,0,0,0,0,0,0,0,0,0,0,0,0,0,0,0,0,0,0,0,0,0],"trees":[{"base_weights":[8.0965E-8,-1.4543614E0,1.6920073E1,3.7891827E0,-4.715464E0,2.1239153E1,1.0632478E1,6.3419385E0,-7.186619E-1,-5.379608E-1,-5.9873953E0,1.917331E1,9.808233E0,6.9413776E0,2.021582E1,1.8419642E0,7.331244E0,-4.488746E0,2.6696587E0,4.7888308E0,-9.962951E-1,-2.484675E0,-7.112826E0,-3.730774E-1,1.9580173E1,3.0347936E0,1.5888141E1,2.4560354E1,1.2546346E1,9.259311E0,1.2182507E-1,9.731504E0,5.479375E0,-2.2168523E-2,-7.0274096E0,6.5711174E0,7.816194E-1,5.805692E0,1.2612755E0,6.5096086E-1,-2.3763258E0,-3.9471534E-1,-5.4889655E0,-5.957939E0,-8.56649E0,2.910576E-1,-4.5894244E-1,1.4996049E1,2.2039722E1,5.442677E0,-6.118596E-1,5.458606E0,9.663186E0,3.188077E0,7.838287E0,1.7115865E0,4.398956E0,2.9644776E-2,7.48467E0,4.9911305E-1,-7.9728866E-1,2.790021E0,7.305692E0,2.2248976E0,9.1330385E-1,-4.7082075E-1,1.8928322E0,-2.8673882E0,-1.6175869E0,3.633075E-1,2.5250623E0,1.1200603E-1,4.688077E0,-9.6490407E-1,8.3022606E-1,9.348388E-1,-8.1080204E-1,-8.423007E-1,2.8350961E0,9.973471E-1,-4.28394E-1,-1.8238248E0,2.539037E-1,-1.8743135E0,-4.517509E-1,-2.6447895E0,1.1013795E-2,-1.0589424E0,4.682612E0,5.9212556E0,8.706568E0,2.1920192E0,-1.154308E0,3.188077E0,-8.0426705E-1,1.410576E-1,3.3350961E0],"categories":[],"categories_nodes":[],"categories_segments":[],"categories_sizes":[],"default_left":[0,0,0,0,0,0,0,0,0,0,0,0,0,0,0,0,0,0,0,0,0,0,0,0,0,0,0,0,0,0,0,0,0,0,0,0,0,0,0,0,0,0,0,0,0,0,0,0,0,0,0,0,0,0,0,0,0,0,0,0,0,0,0,0,0,0,0,0,0,0,0,0,0,0,0,0,0,0,0,0,0,0,0,0,0,0,0,0,0,0,0,0,0,0,0,0,0],"id":0,"left_children":[1,3,5,7,9,11,13,15,17,19,21,23,-1,25,27,29,31,33,35,37,39,41,43,45,47,49,51,53,55,57,59,61,63,65,67,69,71,-1,73,75,77,79,81,83,85,-1,-1,87,89,91,93,-1,95,-1,-1,-1,-1,-1,-1,-1,-1,-1,-1,-1,-1,-1,-1,-1,-1,-1,-1,-1,-1,-1,-1,-1,-1,-1,-1,-1,-1,-1,-1,-1,-1,-1,-1,-1,-1,-1,-1,-1,-1,-1,-1,-1,-1],"loss_changes":[6.031397E4,3.861197E4,5.0425625E3,9.96999E3,7.393164E3,2.0708555E3,2.7248936E3,2.4483691E3,4.0230994E3,8.006842E2,4.1885156E3,7.946289E2,0E0,2.0488599E3,4.2490332E2,1.2875177E3,1.960248E3,1.6893752E3,1.2176376E3,1.3113015E3,6.857993E2,1.636612E3,1.3037656E3,6.1456103E0,7.6315234E2,3.8090094E2,8.26958E1,6.2304688E0,6.115674E1,2.7282983E3,3.601262E2,1.009875E3,1.1942871E3,5.4870844E2,3.4163086E2,5.2405225E2,6.7903973E2,0E0,1.572678E2,1.1493055E3,8.6315344E2,6.004004E2,4.0539893E2,5.750029E2,7.6225586E2,0E0,0E0,4.750459E2,4.0771875E2,4.7837537E2,4.470505E2,0E0,8.8326294E1,0E0,0E0,0E0,0E0,0E0,0E0,0E0,0E0,0E0,0E0,0E0,0E0,0E0,0E0,0E0,0E0,0E0,0E0,0E0,0E0,0E0,0E0,0E0,0E0,0E0,0E0,0E0,0E0,0E0,0E0,0E0,0E0,0E0,0E0,0E0,0E0,0E0,0E0,0E0,0E0,0E0,0E0,0E0,0E0],"parents":[2147483647,0,0,1,1,2,2,3,3,4,4,5,5,6,6,7,7,8,8,9,9,10,10,11,11,13,13,14,14,15,15,16,16,17,17,18,18,19,19,20,20,21,21,22,22,23,23,24,24,25,25,26,26,27,27,28,28,29,29,30,30,31,31,32,32,33,33,34,34,35,35,36,36,38,38,39,39,40,40,41,41,42,42,43,43,44,44,47,47,48,48,49,49,50,50,52,52],"right_children":[2,4,6,8,10,12,14,16,18,20,22,24,-1,26,28,30,32,34,36,38,40,42,44,46,48,50,52,54,56,58,60,62,64,66,68,70,72,-1,74,76,78,80,82,84,86,-1,-1,88,90,92,94,-1,96,-1,-1,-1,-1,-1,-1,-1,-1,-1,-1,-1,-1,-1,-1,-1,-1,-1,-1,-1,-1,-1,-1,-1,-1,-1,-1,-1,-1,-1,-1,-1,-1,-1,-1,-1,-1,-1,-1,-1,-1,-1,-1,-1,-1],"split_conditions":[1.8246252E1,2.2499986E2,1.9642828E2,2.6E0,1.2015589E1,2.2600416E1,4E-1,5.384827E1,5.248333E0,7.5942073E0,2.7132852E2,1.3521524E1,9.808233E0,2.079E1,1.353236E1,-4.8725004E0,1.4010657E2,1.3910169E1,1.2599998E1,-9.220417E0,2.8626648E2,4E-1,1.8709612E1,1.8987917E1,1.9394167E1,2.7408554E2,1.4565548E1,2.2068108E2,1.8615E1,-6.2120833E0,1.3556282E1,1.8899143E1,8.512917E0,8.099999E0,6.9075424E1,5.977424E1,2.7219902E1,5.805692E0,-3.8162498E0,1.0944532E1,1.6631666E1,1.3281023E1,2.6814743E2,1.647125E1,3.1959505E1,2.910576E-1,-4.5894244E-1,3.289101E1,1.5000002E0,2E-1,1.2984975E1,5.458606E0,1.59134655E1,3.188077E0,7.838287E0,1.7115865E0,4.398956E0,2.9644776E-2,7.48467E0,4.9911305E-1,-7.9728866E-1,2.790021E0,7.305692E0,2.2248976E0,9.1330385E-1,-4.7082075E-1,1.8928322E0,-2.8673882E0,-1.6175869E0,3.633075E-1,2.5250623E0,1.1200603E-1,4.688077E0,-9.6490407E-1,8.3022606E-1,9.348388E-1,-8.1080204E-1,-8.423007E-1,2.8350961E0,9.973471E-1,-4.28394E-1,-1.8238248E0,2.539037E-1,-1.8743135E0,-4.517509E-1,-2.6447895E0,1.1013795E-2,-1.0589424E0,4.682612E0,5.9212556E0,8.706568E0,2.1920192E0,-1.154308E0,3.188077E0,-8.0426705E-1,1.410576E-1,3.3350961E0],"split_indices":[0,3,3,1,2,0,1,3,0,2,3,3,0,0,2,0,3,2,2,0,3,1,2,0,0,3,2,3,0,0,2,2,0,1,3,3,2,0,0,2,0,2,3,0,2,0,0,3,1,1,2,0,2,0,0,0,0,0,0,0,0,0,0,0,0,0,0,0,0,0,0,0,0,0,0,0,0,0,0,0,0,0,0,0,0,0,0,0,0,0,0,0,0,0,0,0,0],"split_type":[0,0,0,0,0,0,0,0,0,0,0,0,0,0,0,0,0,0,0,0,0,0,0,0,0,0,0,0,0,0,0,0,0,0,0,0,0,0,0,0,0,0,0,0,0,0,0,0,0,0,0,0,0,0,0,0,0,0,0,0,0,0,0,0,0,0,0,0,0,0,0,0,0,0,0,0,0,0,0,0,0,0,0,0,0,0,0,0,0,0,0,0,0,0,0,0,0],"sum_hessian":[2.449E3,2.256E3,1.93E2,8.65E2,1.391E3,1.13E2,8E1,5.52E2,3.13E2,3.25E2,1.066E3,9.8E1,1.5E1,5.9E1,2.1E1,1E2,4.52E2,1.48E2,1.65E2,2.5E1,3E2,2.6E2,8.06E2,2E0,9.6E1,4.2E1,1.7E1,1.2E1,9E0,1.8E1,8.2E1,1.95E2,2.57E2,5.4E1,9.4E1,5.3E1,1.12E2,4E0,2.1E1,1.37E2,1.63E2,1.54E2,1.06E2,4.52E2,3.54E2,1E0,1E0,3.6E1,6E1,2.5E1,1.7E1,1.1E1,6E0,2E0,1E1,3E0,6E0,1.2E1,6E0,5.3E1,2.9E1,1.91E2,4E0,1.42E2,1.15E2,4.4E1,1E1,3.5E1,5.9E1,1.4E1,3.9E1,1.1E2,2E0,5E0,1.6E1,7.9E1,5.8E1,1.58E2,5E0,3.3E1,1.21E2,9.7E1,9E0,4.24E2,2.8E1,3.44E2,1E1,1E0,3.5E1,4.8E1,1.2E1,2.1E1,4E0,2E0,1.5E1,1E0,5E0],"tree_param":{"num_deleted":"0","num_feature":"4","num_nodes":"97","size_leaf_vector":"1"}},{"base_weights":[3.4403164E-2,-1.0061334E0,1.2139851E1,2.7435257E0,-3.273336E0,6.9056406E0,1.4846829E1,4.641753E0,-5.340726E-1,-1.3858815E-1,-4.0977006E0,1.1401165E1,2.3412557E0,1.726111E1,1.09106245E1,1.6754848E0,5.561478E0,-3.1626792E0,1.8428757E0,5.222511E-1,-3.085323E0,-1.9363E0,-5.040641E0,-1.450449E0,1.2249717E1,8.200378E0,-1.4936978E0,1.5372956E1,7.0496674E0,7.767768E0,1.6739408E1,6.8770084E0,7.700395E-1,7.53907E0,4.1770644E0,5.8469456E-2,-4.941631E0,5.497802E0,3.4050852E-1,3.5820868E0,-8.2864225E-1,-3.8374314E0,3.5711157E0,-6.549124E-1,-4.0534816E0,-4.4464426E0,-6.5875564E0,-9.00101E-1,2.4739896E-1,1.307647E1,3.1933293E0,1.3013205E1,1.5285225E0,-5.7844276E0,4.7685266E-1,9.896962E0,1.774493E1,3.4859204E0,1.16180725E1,5.681493E0,1.08926525E1,2.1435665E-2,5.5600405E0,3.268508E-2,2.2308438E0,2.144836E0,6.5178056E0,1.8948946E0,7.865867E-1,-1.4088795E-1,4.207133E0,-1.5590825E0,1.411594E0,2.7287507E0,-1.4179872E-1,-7.778274E-2,4.184247E0,1.7017034E0,-2.2251388E-1,-3.4658545E-1,5.256537E0,-1.3887748E0,4.7243908E-1,1.6392845E0,-8.842069E-1,-7.445242E-1,1.5226412E-1,-1.347387E0,4.9474966E-2,-1.395127E0,2.1896265E0,-2.113793E0,3.0211622E-1,4.6921763E0,2.8921764E0,-2.6133415E-1,1.4515545E0,5.2949123E0,2.0104086E0,2.062255E0,-1.5243539E-1,-2.111968E0,2.6225483E-1,4.1496735E0,-7.257233E-1,3.9286103E0,-8.448344E-2,2.2384343E0,5.9835362E0,-5.28276E-1,1.6918175E0,2.1098425E0,4.3749013E0,8.312142E-1,3.535357E0],"categories":[],"categories_nodes":[],"categories_segments":[],"categories_sizes":[],"default_left":[0,0,0,0,0,0,0,0,0,0,0,0,0,0,0,0,0,0,0,0,0,0,0,0,0,0,0,0,0,0,0,0,0,0,0,0,0,0,0,0,0,0,0,0,0,0,0,0,0,0,0,0,0,0,0,0,0,0,0,0,0,0,0,0,0,0,0,0,0,0,0,0,0,0,0,0,0,0,0,0,0,0,0,0,0,0,0,0,0,0,0,0,0,0,0,0,0,0,0,0,0,0,0,0,0,0,0,0,0,0,0,0,0,0,0],"id":1,"left_children":[1,3,5,7,9,11,13,15,17,19,21,23,25,27,29,31,33,35,37,39,41,43,45,47,49,51,53,55,-1,57,59,61,63,65,67,69,71,73,75,77,79,81,83,85,87,89,91,-1,-1,93,95,97,99,101,103,105,107,109,111,-1,113,-1,-1,-1,-1,-1,-1,-1,-1,-1,-1,-1,-1,-1,-1,-1,-1,-1,-1,-1,-1,-1,-1,-1,-1,-1,-1,-1,-1,-1,-1,-1,-1,-1,-1,-1,-1,-1,-1,-1,-1,-1,-1,-1,-1,-1,-1,-1,-1,-1,-1,-1,-1,-1,-1],"loss_changes":[3.0872807E4,1.9196271E4,2.6462422E3,5.297085E3,3.6353682E3,1.3686194E3,1.01856445E3,1.4611543E3,1.9614719E3,5.7412286E2,2.2606504E3,3.8854688E2,7.9868005E2,5.4564844E2,8.0424365E2,6.022551E2,1.0937461E3,8.540989E2,9.0414966E2,9.991445E2,2.840475E2,9.197417E2,6.830703E2,1.3052771E1,1.9783936E2,4.2965576E2,1.887705E2,6.296924E2,0E0,5.365249E2,1.2270508E1,1.5059208E3,4.8835468E2,7.732871E2,7.951704E2,4.0483707E2,2.6089795E2,1.0354323E3,9.666441E2,6.730088E2,1.0272399E3,2.172796E2,9.0148476E1,4.5359097E2,2.3713696E2,1.3827764E3,7.486592E2,0E0,0E0,1.0470557E2,3.0961948E1,1.1584192E2,7.970321E1,6.467174E1,6.5228174E2,6.873469E2,8.014551E2,2.1331105E2,1.4215063E2,0E0,1.8054504E1,0E0,0E0,0E0,0E0,0E0,0E0,0E0,0E0,0E0,0E0,0E0,0E0,0E0,0E0,0E0,0E0,0E0,0E0,0E0,0E0,0E0,0E0,0E0,0E0,0E0,0E0,0E0,0E0,0E0,0E0,0E0,0E0,0E0,0E0,0E0,0E0,0E0,0E0,0E0,0E0,0E0,0E0,0E0,0E0,0E0,0E0,0E0,0E0,0E0,0E0,0E0,0E0,0E0,0E0],"parents":[2147483647,0,0,1,1,2,2,3,3,4,4,5,5,6,6,7,7,8,8,9,9,10,10,11,11,12,12,13,13,14,14,15,15,16,16,17,17,18,18,19,19,20,20,21,21,22,22,23,23,24,24,25,25,26,26,27,27,29,29,30,30,31,31,32,32,33,33,34,34,35,35,36,36,37,37,38,38,39,39,40,40,41,41,42,42,43,43,44,44,45,45,46,46,49,49,50,50,51,51,52,52,53,53,54,54,55,55,56,56,57,57,58,58,60,60],"right_children":[2,4,6,8,10,12,14,16,18,20,22,24,26,28,30,32,34,36,38,40,42,44,46,48,50,52,54,56,-1,58,60,62,64,66,68,70,72,74,76,78,80,82,84,86,88,90,92,-1,-1,94,96,98,100,102,104,106,108,110,112,-1,114,-1,-1,-1,-1,-1,-1,-1,-1,-1,-1,-1,-1,-1,-1,-1,-1,-1,-1,-1,-1,-1,-1,-1,-1,-1,-1,-1,-1,-1,-1,-1,-1,-1,-1,-1,-1,-1,-1,-1,-1,-1,-1,-1,-1,-1,-1,-1,-1,-1,-1,-1,-1,-1,-1],"split_conditions":[1.8246252E1,2.2147241E2,1.9394167E1,2.6E0,1.1726277E1,1.7205908E2,1.9642828E2,7.344285E1,5.248333E0,1.0487916E1,2.7693427E2,3.289101E1,1.3138765E1,2.2600416E1,4E-1,-4.8725004E0,1.4010657E2,1.3797912E1,4.4999995E0,2.732535E2,1.6877499E1,5E-1,8.000001E-1,1E-1,1.8504139E1,1.8506666E1,2.2655144E2,8.925108E1,7.0496674E0,2.079E1,1.353236E1,-6.2120833E0,1.7418196E1,1.8899143E1,5.715E0,1.3900001E1,2.9070974E1,1.6534697E2,1.7615002E1,1.1879169E0,9.075416E0,3.1668082E2,1.7615002E1,1.660833E0,1.5692082E1,3.0718885E1,1.6231667E1,-9.00101E-1,2.4739896E-1,1.8829582E1,1.8354586E1,1.08955765E1,8.913181E0,1.9453327E1,2.4888954E2,7.547748E1,9.793058E0,2.2772638E2,2.4813135E2,5.681493E0,1.3556282E1,2.1435665E-2,5.5600405E0,3.268508E-2,2.2308438E0,2.144836E0,6.5178056E0,1.8948946E0,7.865867E-1,-1.4088795E-1,4.207133E0,-1.5590825E0,1.411594E0,2.7287507E0,-1.4179872E-1,-7.778274E-2,4.184247E0,1.7017034E0,-2.2251388E-1,-3.4658545E-1,5.256537E0,-1.3887748E0,4.7243908E-1,1.6392845E0,-8.842069E-1,-7.445242E-1,1.5226412E-1,-1.347387E0,4.9474966E-2,-1.395127E0,2.1896265E0,-2.113793E0,3.0211622E-1,4.6921763E0,2.8921764E0,-2.6133415E-1,1.4515545E0,5.2949123E0,2.0104086E0,2.062255E0,-1.5243539E-1,-2.111968E0,2.6225483E-1,4.1496735E0,-7.257233E-1,3.9286103E0,-8.448344E-2,2.2384343E0,5.9835362E0,-5.28276E-1,1.6918175E0,2.1098425E0,4.3749013E0,8.312142E-1,3.535357E0],"split_indices":[0,3,0,1,2,3,3,3,0,0,3,3,2,0,1,0,3,2,1,3,0,1,1,1,2,0,3,3,0,0,2,0,2,2,0,1,2,3,0,0,0,3,0,0,0,2,0,0,0,0,0,2,2,2,3,3,2,3,3,0,2,0,0,0,0,0,0,0,0,0,0,0,0,0,0,0,0,0,0,0,0,0,0,0,0,0,0,0,0,0,0,0,0,0,0,0,0,0,0,0,0,0,0,0,0,0,0,0,0,0,0,0,0,0,0],"split_type":[0,0,0,0,0,0,0,0,0,0,0,0,0,0,0,0,0,0,0,0,0,0,0,0,0,0,0,0,0,0,0,0,0,0,0,0,0,0,0,0,0,0,0,0,0,0,0,0,0,0,0,0,0,0,0,0,0,0,0,0,0,0,0,0,0,0,0,0,0,0,0,0,0,0,0,0,0,0,0,0,0,0,0,0,0,0,0,0,0,0,0,0,0,0,0,0,0,0,0,0,0,0,0,0,0,0,0,0,0,0,0,0,0,0,0],"sum_hessian":[2.449E3,2.256E3,1.93E2,8.5E2,1.406E3,6.7E1,1.26E2,5.38E2,3.12E2,2.93E2,1.113E3,3.3E1,3.4E1,7.6E1,5E1,1.28E2,4.1E2,1.48E2,1.64E2,2.4E2,5.3E1,3.39E2,7.74E2,2E0,3.1E1,1.3E1,2.1E1,6.1E1,1.5E1,3.4E1,1.6E1,1.8E1,1.1E2,1.67E2,2.43E2,5.3E1,9.5E1,4.7E1,1.17E2,7.3E1,1.67E2,4.8E1,5E0,2.12E2,1.27E2,5.62E2,2.12E2,1E0,1E0,2.8E1,3E0,7E0,6E0,6E0,1.5E1,2E1,4.1E1,1.7E1,1.7E1,1E1,6E0,1.2E1,6E0,1.01E2,9E0,1.64E2,3E0,1.01E2,1.42E2,5.2E1,1E0,9.3E1,2E0,2.9E1,1.8E1,1.13E2,4E0,4.9E1,2.4E1,1.65E2,2E0,4.2E1,6E0,4E0,1E0,8.2E1,1.3E2,1.15E2,1.2E1,5.53E2,9E0,2E2,1.2E1,1.4E1,1.4E1,1E0,2E0,3E0,4E0,1E0,5E0,5E0,1E0,2E0,1.3E1,1.5E1,5E0,8E0,3.3E1,5E0,1.2E1,8E0,9E0,1E0,5E0],"tree_param":{"num_deleted":"0","num_feature":"4","num_nodes":"115","size_leaf_vector":"1"}},{"base_weights":[6.034538E-2,-7.676961E-1,7.980016E0,1.8866394E0,-2.3278506E0,4.666684E0,1.0682639E1,3.578268E0,-1.19602226E-1,-1.0702701E0,-3.7324326E0,8.482903E0,1.2372531E0,1.2302612E1,7.76013E0,3.198186E0,1.2981622E1,-1.8084527E0,2.3647833E0,-4.005169E-1,-2.7896333E0,-5.848085E-1,-4.159416E0,-8.326197E-2,9.03145E0,6.2570405E0,-1.2400088E0,-9.793926E-1,1.2540991E1,1.09537974E-1,9.28751E0,1.1989527E0,4.190142E0,2.624421E-1,1.5688414E1,-8.139965E-1,-4.5296407E0,4.323858E0,-8.2973975E-1,2.9423004E-1,-2.820008E0,3.0930016E0,-3.3662493E0,-3.303402E0,2.8296778E0,-4.2913384E0,2.0522457E-1,-7.6508594E-1,4.767525E-1,1.1151307E1,5.6120777E0,8.170357E0,7.4979657E-1,-2.4196432E0,4.498268E0,1.0563944E1,1.5585419E1,-2.0216606E0,3.2789512E0,6.784423E0,1.3007027E1,1.9210287E0,-6.804505E-2,-1.5188923E0,1.3627403E0,5.641182E-1,-6.8871206E-1,5.529489E0,-1.5417443E-1,-7.3663175E-2,-1.5597302E0,1.7643446E0,-1.6134869E0,-1.7083827E-1,2.195779E0,-5.8763516E-1,2.3511815E0,2.5408718E-1,-4.9665868E-1,-1.0572405E0,9.577257E-1,4.0304866E0,9.426023E-2,-1.7706867E0,-7.003622E-1,-2.2057547E-1,-2.0337048E0,-1.4006269E0,1.1738642E0,-1.0396878E0,-1.488461E0,-3.9522317E-1,3.913503E0,2.4262989E0,4.545237E0,6.2073934E-1,2.4968252E0,6.611264E-1,2.8791811E0,1.7529168E0,-4.3123993E-1,-1.4274244E0,-3.588173E-1,2.5476294E0,-1.860386E-1,-1.7438611E0,3.4053047E0,5.601994E0,2.8964376E0,2.347458E-1,-1.0858066E0,3.74387E-1,1.4057903E0,6.2521195E-1,2.7450812E0,4.5788283E0,2.4745958E0],"categories":[],"categories_nodes":[],"categories_segments":[],"categories_sizes":[],"default_left":[0,0,0,0,0,0,0,0,0,0,0,0,0,0,0,0,0,0,0,0,0,0,0,0,0,0,0,0,0,0,0,0,0,0,0,0,0,0,0,0,0,0,0,0,0,0,0,0,0,0,0,0,0,0,0,0,0,0,0,0,0,0,0,0,0,0,0,0,0,0,0,0,0,0,0,0,0,0,0,0,0,0,0,0,0,0,0,0,0,0,0,0,0,0,0,0,0,0,0,0,0,0,0,0,0,0,0,0,0,0,0,0,0,0,0,0,0],"id":2,"left_children":[1,3,5,7,9,11,13,15,17,19,21,23,25,27,29,31,33,35,37,39,41,43,45,47,49,51,53,-1,55,57,59,61,63,65,67,69,71,73,75,77,79,81,83,85,87,89,91,-1,-1,93,95,97,99,101,103,105,107,109,111,113,115,-1,-1,-1,-1,-1,-1,-1,-1,-1,-1,-1,-1,-1,-1,-1,-1,-1,-1,-1,-1,-1,-1,-1,-1,-1,-1,-1,-1,-1,-1,-1,-1,-1,-1,-1,-1,-1,-1,-1,-1,-1,-1,-1,-1,-1,-1,-1,-1,-1,-1,-1,-1,-1,-1,-1,-1],"loss_changes":[1.6072775E4,9.193656E3,2.0276338E3,2.7901448E3,2.465398E3,1.3767749E3,5.0579785E2,1.5525068E3,1.5860764E3,8.498773E2,8.845967E2,2.356997E2,7.165726E2,3.3781348E2,5.598799E2,8.4773096E2,5.8116187E2,6.051859E2,9.611088E2,8.9676764E2,7.125604E2,7.5195557E2,3.3541602E2,2.055662E1,2.7810107E2,1.940788E2,2.7487787E2,0E0,3.1085547E2,6.742076E1,2.8416577E2,1.0699877E3,9.586499E2,2.0872679E1,6.317224E2,4.125155E2,5.6173645E2,1.3966279E3,5.926924E2,4.4864133E2,5.150381E2,5.41805E2,4.807307E2,3.9668118E2,3.10672E2,2.9491895E2,3.6909113E2,0E0,0E0,2.2054932E2,1.7485455E2,9.804352E1,7.524098E1,8.873128E1,1.4836021E2,7.233574E2,3.5079395E2,2.9713116E1,5.5826836E0,2.7006067E2,3.5106934E1,0E0,0E0,0E0,0E0,0E0,0E0,0E0,0E0,0E0,0E0,0E0,0E0,0E0,0E0,0E0,0E0,0E0,0E0,0E0,0E0,0E0,0E0,0E0,0E0,0E0,0E0,0E0,0E0,0E0,0E0,0E0,0E0,0E0,0E0,0E0,0E0,0E0,0E0,0E0,0E0,0E0,0E0,0E0,0E0,0E0,0E0,0E0,0E0,0E0,0E0,0E0,0E0,0E0,0E0,0E0,0E0],"parents":[2147483647,0,0,1,1,2,2,3,3,4,4,5,5,6,6,7,7,8,8,9,9,10,10,11,11,12,12,13,13,14,14,15,15,16,16,17,17,18,18,19,19,20,20,21,21,22,22,23,23,24,24,25,25,26,26,28,28,29,29,30,30,31,31,32,32,33,33,34,34,35,35,36,36,37,37,38,38,39,39,40,40,41,41,42,42,43,43,44,44,45,45,46,46,49,49,50,50,51,51,52,52,53,53,54,54,55,55,56,56,57,57,58,58,59,59,60,60],"right_children":[2,4,6,8,10,12,14,16,18,20,22,24,26,28,30,32,34,36,38,40,42,44,46,48,50,52,54,-1,56,58,60,62,64,66,68,70,72,74,76,78,80,82,84,86,88,90,92,-1,-1,94,96,98,100,102,104,106,108,110,112,114,116,-1,-1,-1,-1,-1,-1,-1,-1,-1,-1,-1,-1,-1,-1,-1,-1,-1,-1,-1,-1,-1,-1,-1,-1,-1,-1,-1,-1,-1,-1,-1,-1,-1,-1,-1,-1,-1,-1,-1,-1,-1,-1,-1,-1,-1,-1,-1,-1,-1,-1,-1,-1,-1,-1,-1,-1],"split_conditions":[1.7615002E1,2.2068108E2,1.9394167E1,1.3479583E1,1.5815435E1,1.8468828E2,2.1424907E2,1.3217443E1,1.0635834E1,3.0989536E2,2.5349574E2,3.5774647E1,1.3237039E1,1.3521524E1,2.2772638E2,8.649102E1,-2.4120836E0,7.2E0,4.3E0,1.0635834E1,8.209263E0,5.0733333E0,3.4632867E2,1.2738099E1,1.4145756E1,1.8615E1,2.8999999E0,-9.793926E-1,1E-1,2.0381668E1,4E-1,2.047239E1,-5.012083E0,-3.8162498E0,2.5E0,2.0716045E2,1.3797912E1,1.5281989E1,2.3051247E1,5E-1,1.6877499E1,-9.220417E0,3.178682E2,1.8626305E1,1.629174E1,2.9613568E2,1.3140002E1,-7.6508594E-1,4.767525E-1,1.2313894E1,3.2E0,1.797125E1,8.913181E0,1.8121248E1,5.4999986E0,8.707238E0,1.4386494E1,1.9817083E1,1.3684735E1,2.02275E1,1.353236E1,1.9210287E0,-6.804505E-2,-1.5188923E0,1.3627403E0,5.641182E-1,-6.8871206E-1,5.529489E0,-1.5417443E-1,-7.3663175E-2,-1.5597302E0,1.7643446E0,-1.6134869E0,-1.7083827E-1,2.195779E0,-5.8763516E-1,2.3511815E0,2.5408718E-1,-4.9665868E-1,-1.0572405E0,9.577257E-1,4.0304866E0,9.426023E-2,-1.7706867E0,-7.003622E-1,-2.2057547E-1,-2.0337048E0,-1.4006269E0,1.1738642E0,-1.0396878E0,-1.488461E0,-3.9522317E-1,3.913503E0,2.4262989E0,4.545237E0,6.2073934E-1,2.4968252E0,6.611264E-1,2.8791811E0,1.7529168E0,-4.3123993E-1,-1.4274244E0,-3.588173E-1,2.5476294E0,-1.860386E-1,-1.7438611E0,3.4053047E0,5.601994E0,2.8964376E0,2.347458E-1,-1.0858066E0,3.74387E-1,1.4057903E0,6.2521195E-1,2.7450812E0,4.5788283E0,2.4745958E0],"split_indices":[0,3,0,2,2,3,3,2,0,3,3,3,2,3,3,3,0,1,1,0,2,0,3,2,2,0,1,0,1,0,1,3,0,0,1,3,2,2,2,1,0,0,3,2,2,3,0,0,0,2,1,0,2,0,1,2,2,0,2,0,2,0,0,0,0,0,0,0,0,0,0,0,0,0,0,0,0,0,0,0,0,0,0,0,0,0,0,0,0,0,0,0,0,0,0,0,0,0,0,0,0,0,0,0,0,0,0,0,0,0,0,0,0,0,0,0,0],"split_type":[0,0,0,0,0,0,0,0,0,0,0,0,0,0,0,0,0,0,0,0,0,0,0,0,0,0,0,0,0,0,0,0,0,0,0,0,0,0,0,0,0,0,0,0,0,0,0,0,0,0,0,0,0,0,0,0,0,0,0,0,0,0,0,0,0,0,0,0,0,0,0,0,0,0,0,0,0,0,0,0,0,0,0,0,0,0,0,0,0,0,0,0,0,0,0,0,0,0,0,0,0,0,0,0,0,0,0,0,0,0,0,0,0,0,0,0,0],"sum_hessian":[2.449E3,2.218E3,2.31E2,8.21E2,1.397E3,1.05E2,1.26E2,4.45E2,3.76E2,7.38E2,6.59E2,4.9E1,5.6E1,7.9E1,4.7E1,4.29E2,1.6E1,2.24E2,1.52E2,5.32E2,2.06E2,7.9E1,5.8E2,3E0,4.6E1,1.8E1,3.8E1,1E0,7.8E1,8E0,3.9E1,1.43E2,2.86E2,3E0,1.3E1,1.65E2,5.9E1,9.4E1,5.8E1,4.14E2,1.18E2,1.8E1,1.88E2,4.4E1,3.5E1,5.63E2,1.7E1,1E0,2E0,2.7E1,1.9E1,1.3E1,5E0,3.2E1,6E0,5E1,2.8E1,5E0,3E0,2.5E1,1.4E1,3E1,1.13E2,1E1,2.76E2,2E0,1E0,1.1E1,2E0,1.47E2,1.8E1,4E0,5.5E1,3.6E1,5.8E1,5.2E1,6E0,3.23E2,9.1E1,1.06E2,1.2E1,3E0,1.5E1,5.3E1,1.35E2,2.6E1,1.8E1,4E0,3.1E1,2.55E2,3.08E2,1.6E1,1E0,1.7E1,1E1,9E0,1E1,3E0,1E1,1E0,4E0,1E1,2.2E1,3E0,3E0,2E0,4.8E1,1.7E1,1.1E1,2E0,3E0,2E0,1E0,9E0,1.6E1,8E0,6E0],"tree_param":{"num_deleted":"0","num_feature":"4","num_nodes":"117","size_leaf_vector":"1"}},{"base_weights":[6.054614E-2,-5.332979E-1,5.7401986E0,1.1195508E0,-1.776101E0,4.330099E0,9.008548E0,2.306487E0,-1.4688233E-1,-7.9493123E-1,-2.8382654E0,3.7742667E0,1.2512494E1,1.006018E1,8.7987095E-1,2.1151655E0,9.783082E0,-6.484171E-1,4.5150824E0,-2.970579E-1,-2.2512207E0,-2.4634867E0,-4.252391E0,5.4395304E0,1.1189499E0,1.1456696E0,1.420853E1,5.5183706E0,9.465885E0,3.728248E0,-2.1444802E0,-2.390029E0,2.3466272E0,2.1558602E0,1.7050993E1,-5.291952E0,-1.0184656E-1,8.512461E0,1.5348878E0,1.5555189E0,-1.4539412E0,-4.9347396E0,-1.2886124E0,-4.883527E0,-2.172758E0,-4.7244735E0,1.1125134E0,7.393774E0,2.6853127E0,-1.1144538E0,2.9253132E0,1.5718541E0,4.8974857E0,-4.7506204E-1,1.0395141E1,1.3582324E0,7.9721265E-2,-2.62957E-1,-8.092831E-1,4.2264736E-1,-1.7138444E0,2.9280396E0,6.5288687E-1,-3.692509E-1,3.3714058E0,1.13557056E-1,7.58778E0,-1.039323E0,-2.6881971E0,-5.6944275E-1,2.3473479E-1,5.048425E-1,4.774195E0,1.9947948E0,-7.190591E-1,-1.3666018E0,6.202478E-1,1.6316906E0,-4.9041405E-1,4.6609214E-1,-1.634218E0,3.109173E-1,-6.9481313E-1,-9.719117E-1,-1.8354316E0,6.8484616E-1,-6.948312E-1,-6.0507214E-1,-1.6452748E0,3.7209167E0,-2.1333268E0,1.6302156E0,3.549291E0,5.1284313E-1,2.8108304E0,1.4914138E0,-6.130827E-1,-1.8038739E0,1.1015568E0,1.6093982E0,-1.4208267E0,4.0152364E0,2.5170448E0],"categories":[],"categories_nodes":[],"categories_segments":[],"categories_sizes":[],"default_left":[0,0,0,0,0,0,0,0,0,0,0,0,0,0,0,0,0,0,0,0,0,0,0,0,0,0,0,0,0,0,0,0,0,0,0,0,0,0,0,0,0,0,0,0,0,0,0,0,0,0,0,0,0,0,0,0,0,0,0,0,0,0,0,0,0,0,0,0,0,0,0,0,0,0,0,0,0,0,0,0,0,0,0,0,0,0,0,0,0,0,0,0,0,0,0,0,0,0,0,0,0,0,0],"id":3,"left_children":[1,3,5,7,9,11,13,15,17,19,21,23,25,27,29,31,33,35,37,39,41,43,45,47,49,-1,51,-1,53,55,57,59,61,63,65,67,69,71,73,75,77,79,81,83,85,87,89,91,93,95,97,-1,-1,99,101,-1,-1,-1,-1,-1,-1,-1,-1,-1,-1,-1,-1,-1,-1,-1,-1,-1,-1,-1,-1,-1,-1,-1,-1,-1,-1,-1,-1,-1,-1,-1,-1,-1,-1,-1,-1,-1,-1,-1,-1,-1,-1,-1,-1,-1,-1,-1,-1],"loss_changes":[8.266489E3,4.560182E3,1.03021E3,1.4328649E3,1.3181648E3,6.9865356E2,5.809863E2,6.830803E2,1.0831471E3,4.7786276E2,3.1175488E2,6.7929297E2,9.318567E1,1.280166E2,8.552557E1,5.0718604E2,6.2844824E2,1.0603533E3,5.230178E2,1.0588667E3,4.276148E2,3.292163E2,3.243733E2,4.9147437E2,2.493548E2,0E0,6.6322876E1,0E0,5.499614E2,1.2632965E1,1.1422081E0,3.10995E2,5.571216E2,2.2914174E2,8.1487366E2,2.63964E2,5.9715656E2,9.336666E2,5.588714E2,6.038518E2,3.876892E2,1.5482007E2,3.0099792E2,8.367981E1,2.8183984E2,2.2756738E2,1.1095375E3,4.1397168E2,2.5140997E2,1.6849066E2,2.4895258E2,0E0,0E0,1.7470679E2,2.1132129E2,0E0,0E0,0E0,0E0,0E0,0E0,0E0,0E0,0E0,0E0,0E0,0E0,0E0,0E0,0E0,0E0,0E0,0E0,0E0,0E0,0E0,0E0,0E0,0E0,0E0,0E0,0E0,0E0,0E0,0E0,0E0,0E0,0E0,0E0,0E0,0E0,0E0,0E0,0E0,0E0,0E0,0E0,0E0,0E0,0E0,0E0,0E0,0E0],"parents":[2147483647,0,0,1,1,2,2,3,3,4,4,5,5,6,6,7,7,8,8,9,9,10,10,11,11,12,12,13,13,14,14,15,15,16,16,17,17,18,18,19,19,20,20,21,21,22,22,23,23,24,24,26,26,28,28,29,29,30,30,31,31,32,32,33,33,34,34,35,35,36,36,37,37,38,38,39,39,40,40,41,41,42,42,43,43,44,44,45,45,46,46,47,47,48,48,49,49,50,50,53,53,54,54],"right_children":[2,4,6,8,10,12,14,16,18,20,22,24,26,28,30,32,34,36,38,40,42,44,46,48,50,-1,52,-1,54,56,58,60,62,64,66,68,70,72,74,76,78,80,82,84,86,88,90,92,94,96,98,-1,-1,100,102,-1,-1,-1,-1,-1,-1,-1,-1,-1,-1,-1,-1,-1,-1,-1,-1,-1,-1,-1,-1,-1,-1,-1,-1,-1,-1,-1,-1,-1,-1,-1,-1,-1,-1,-1,-1,-1,-1,-1,-1,-1,-1,-1,-1,-1,-1,-1,-1],"split_conditions":[1.7615002E1,2.4552095E2,2.079E1,1.3479583E1,1.5815435E1,9.900002E0,1.7123669E1,1.3324863E1,1.5912918E1,8.79625E0,2.4490585E1,1.448972E1,6.660223E1,2.3008888E1,2.1177502E1,-5.793333E0,2E-1,2.8123634E1,1E-1,2.8406485E2,2.763935E2,-3.3808339E0,3.1959505E1,1.9642828E2,1E-1,1.1456696E0,1.797125E1,5.5183706E0,6.438696E1,1.5000002E0,5.384827E1,1.1183201E1,-4.8725004E0,1.0260833E1,-1.4787501E0,6.14625E0,2.2004166E0,1.5192682E1,1.6385832E1,2.4888954E2,6.638072E0,2.4813135E2,1.1709688E1,1.7298738E1,-1.9870834E0,2.8830573E2,2E-1,1.3805565E2,2.3000002E0,1.48257065E1,1.4587776E1,1.5718541E0,4.8974857E0,5.7163864E1,1.3174057E2,1.3582324E0,7.9721265E-2,-2.62957E-1,-8.092831E-1,4.2264736E-1,-1.7138444E0,2.9280396E0,6.5288687E-1,-3.692509E-1,3.3714058E0,1.13557056E-1,7.58778E0,-1.039323E0,-2.6881971E0,-5.6944275E-1,2.3473479E-1,5.048425E-1,4.774195E0,1.9947948E0,-7.190591E-1,-1.3666018E0,6.202478E-1,1.6316906E0,-4.9041405E-1,4.6609214E-1,-1.634218E0,3.109173E-1,-6.9481313E-1,-9.719117E-1,-1.8354316E0,6.8484616E-1,-6.948312E-1,-6.0507214E-1,-1.6452748E0,3.7209167E0,-2.1333268E0,1.6302156E0,3.549291E0,5.1284313E-1,2.8108304E0,1.4914138E0,-6.130827E-1,-1.8038739E0,1.1015568E0,1.6093982E0,-1.4208267E0,4.0152364E0,2.5170448E0],"split_indices":[0,3,0,2,2,1,2,2,0,0,2,2,3,3,0,0,1,3,1,3,3,0,2,3,1,0,0,0,3,1,3,2,0,0,0,0,0,2,0,3,2,3,2,2,0,3,1,3,1,2,2,0,0,3,3,0,0,0,0,0,0,0,0,0,0,0,0,0,0,0,0,0,0,0,0,0,0,0,0,0,0,0,0,0,0,0,0,0,0,0,0,0,0,0,0,0,0,0,0,0,0,0,0],"split_type":[0,0,0,0,0,0,0,0,0,0,0,0,0,0,0,0,0,0,0,0,0,0,0,0,0,0,0,0,0,0,0,0,0,0,0,0,0,0,0,0,0,0,0,0,0,0,0,0,0,0,0,0,0,0,0,0,0,0,0,0,0,0,0,0,0,0,0,0,0,0,0,0,0,0,0,0,0,0,0,0,0,0,0,0,0,0,0,0,0,0,0,0,0,0,0,0,0,0,0,0,0,0,0],"sum_hessian":[2.449E3,2.218E3,2.31E2,9.52E2,1.266E3,1.63E2,6.8E1,4.91E2,4.61E2,6.59E2,6.07E2,1.54E2,9E0,6E1,8E0,4.8E2,1.1E1,4.17E2,4.4E1,4.92E2,1.67E2,4.82E2,1.25E2,9.4E1,6E1,2E0,7E0,2E0,5.8E1,4E0,4E0,2.3E1,4.57E2,6E0,5E0,4.3E1,3.74E2,1.8E1,2.6E1,1.89E2,3.03E2,4.3E1,1.24E2,5E1,4.32E2,1.15E2,1E1,5.4E1,4E1,2.7E1,3.3E1,2E0,5E0,5E0,5.3E1,3E0,1E0,2E0,2E0,1.1E1,1.2E1,9E0,4.48E2,5E0,1E0,2E0,3E0,3E1,1.3E1,1.23E2,2.51E2,1E1,8E0,1.1E1,1.5E1,1.4E1,1.75E2,7E0,2.96E2,3E0,4E1,3.8E1,8.6E1,2.3E1,2.7E1,1.3E1,4.19E2,2.6E1,8.9E1,4E0,6E0,3.9E1,1.5E1,3.6E1,4E0,3E0,2.4E1,2E0,3.1E1,2E0,3E0,1.9E1,3.4E1],"tree_param":{"num_deleted":"0","num_feature":"4","num_nodes":"103","size_leaf_vector":"1"}},{"base_weights":[5.860574E-2,-3.3041257E-1,4.584151E0,1.1113677E0,-1.1367052E0,3.7837627E0,7.4786773E0,1.9843485E0,-4.9501777E-1,-6.432654E-1,-2.1001174E0,3.2212937E0,1.0171205E1,8.519018E0,-1.7155838E0,1.7576584E0,6.4478455E0,3.5833352E0,-9.515186E-1,-1.0124274E-1,-1.9507036E0,-2.461095E0,-1.01355776E-1,1.1192152E1,2.9705458E0,-1.0373529E0,3.7549956E0,9.648658E0,5.3615484E0,-2.1036531E-1,-6.474266E-1,-2.0271489E-1,2.1701105E0,2.191499E0,1.1665786E1,-1.9391245E0,5.9458003E0,-4.169353E0,-3.2432708E-1,-2.0756745E-1,8.842688E0,2.4177663E0,-2.443727E0,-6.64129E-1,-2.9219375E0,-4.076585E-1,3.4307022E0,-2.907858E-1,4.670718E0,-3.8458874E0,3.2514942E0,-7.618913E-1,2.9508248E-1,4.6681385E0,1.2010807E1,5.8630753E0,-2.3287583E-2,1.0688419E0,-4.7698274E-1,3.171873E-1,1.070712E0,4.033191E0,-9.3674654E-1,4.3461094E0,-2.0596313E-1,2.980448E-1,3.0179405E0,-1.733716E0,7.1249974E-1,8.856897E-2,-8.973268E-1,-1.0136142E-1,1.7822554E0,3.808596E0,-5.430412E-1,-1.3102682E0,1.5631895E0,-3.1083858E-1,-1.0557749E0,2.4549892E0,-2.9166067E-1,-1.2014239E0,-6.7521286E-1,-2.5859955E-1,1.4882752E0,-1.6818783E0,7.4339676E-1,-1.0388137E0,1.0290968E0,2.6096156E0,-3.3065552E-1,4.153617E0,2.4648693E0,1.1878216E0,2.8859181E0],"categories":[],"categories_nodes":[],"categories_segments":[],"categories_sizes":[],"default_left":[0,0,0,0,0,0,0,0,0,0,0,0,0,0,0,0,0,0,0,0,0,0,0,0,0,0,0,0,0,0,0,0,0,0,0,0,0,0,0,0,0,0,0,0,0,0,0,0,0,0,0,0,0,0,0,0,0,0,0,0,0,0,0,0,0,0,0,0,0,0,0,0,0,0,0,0,0,0,0,0,0,0,0,0,0,0,0,0,0,0,0,0,0,0,0],"id":4,"left_children":[1,3,5,7,9,11,13,15,17,19,21,23,25,27,29,31,33,35,37,39,41,43,45,47,49,51,-1,53,55,-1,-1,57,59,61,63,-1,65,67,69,71,73,75,77,79,81,83,-1,-1,-1,85,87,-1,-1,89,91,93,-1,-1,-1,-1,-1,-1,-1,-1,-1,-1,-1,-1,-1,-1,-1,-1,-1,-1,-1,-1,-1,-1,-1,-1,-1,-1,-1,-1,-1,-1,-1,-1,-1,-1,-1,-1,-1,-1,-1],"loss_changes":[4.314788E3,2.6250186E3,4.211504E2,1.1368807E3,6.870078E2,5.2051733E2,4.067871E2,5.198782E2,5.358762E2,6.794086E2,3.5328955E2,2.5256409E2,3.28453E2,8.0239746E1,7.310209E-1,4.0552844E2,5.296686E2,7.267728E2,5.193429E2,6.475378E2,6.1111426E2,3.4172876E2,2.732324E2,2.2800879E2,2.8061426E2,1.1606185E1,0E0,2.4981519E2,3.318988E1,0E0,0E0,4.653445E2,6.4072314E2,9.38911E2,3.9328442E2,0E0,4.7897797E2,4.5617206E2,3.5941287E2,5.4038885E2,3.5131146E2,5.723223E2,3.7937122E2,2.4236212E2,2.3083398E2,1.8721318E2,0E0,0E0,0E0,8.068653E1,1.7397144E2,0E0,0E0,2.4216513E2,4.5876465E0,4.057727E1,0E0,0E0,0E0,0E0,0E0,0E0,0E0,0E0,0E0,0E0,0E0,0E0,0E0,0E0,0E0,0E0,0E0,0E0,0E0,0E0,0E0,0E0,0E0,0E0,0E0,0E0,0E0,0E0,0E0,0E0,0E0,0E0,0E0,0E0,0E0,0E0,0E0,0E0,0E0],"parents":[2147483647,0,0,1,1,2,2,3,3,4,4,5,5,6,6,7,7,8,8,9,9,10,10,11,11,12,12,13,13,14,14,15,15,16,16,17,17,18,18,19,19,20,20,21,21,22,22,23,23,24,24,25,25,27,27,28,28,31,31,32,32,33,33,34,34,36,36,37,37,38,38,39,39,40,40,41,41,42,42,43,43,44,44,45,45,49,49,50,50,53,53,54,54,55,55],"right_children":[2,4,6,8,10,12,14,16,18,20,22,24,26,28,30,32,34,36,38,40,42,44,46,48,50,52,-1,54,56,-1,-1,58,60,62,64,-1,66,68,70,72,74,76,78,80,82,84,-1,-1,-1,86,88,-1,-1,90,92,94,-1,-1,-1,-1,-1,-1,-1,-1,-1,-1,-1,-1,-1,-1,-1,-1,-1,-1,-1,-1,-1,-1,-1,-1,-1,-1,-1,-1,-1,-1,-1,-1,-1,-1,-1,-1,-1,-1,-1],"split_conditions":[1.8246252E1,2.1284425E2,2.1544167E1,2.8999999E0,5E-1,7.4E0,1.7123669E1,2.0716045E2,9.957108E0,8.419167E0,1.41379175E1,8.049845E0,1.8354586E1,1.8468828E2,5.384827E1,4.837053E1,4.410833E0,7.254167E-1,4.837053E1,3.0718885E1,2.3606442E2,1.1879999E1,3.393902E2,1.8354586E1,8.707238E0,8.6E0,3.7549956E0,1.0990322E1,3.582338E2,-2.1036531E-1,-6.474266E-1,-2.1787503E0,3E-1,1.1753877E1,3E-1,-1.9391245E0,8.913181E0,1.2631668E1,1.6534697E2,8.0025E0,2E-1,1.1384199E1,1.5281989E1,5.991594E0,2.6275003E0,1.3600001E1,3.4307022E0,-2.907858E-1,4.670718E0,1.598423E2,3.289101E1,-7.618913E-1,2.9508248E-1,1.0587917E1,2.3158752E1,2.4552095E2,-2.3287583E-2,1.0688419E0,-4.7698274E-1,3.171873E-1,1.070712E0,4.033191E0,-9.3674654E-1,4.3461094E0,-2.0596313E-1,2.980448E-1,3.0179405E0,-1.733716E0,7.1249974E-1,8.856897E-2,-8.973268E-1,-1.0136142E-1,1.7822554E0,3.808596E0,-5.430412E-1,-1.3102682E0,1.5631895E0,-3.1083858E-1,-1.0557749E0,2.4549892E0,-2.9166067E-1,-1.2014239E0,-6.7521286E-1,-2.5859955E-1,1.4882752E0,-1.6818783E0,7.4339676E-1,-1.0388137E0,1.0290968E0,2.6096156E0,-3.3065552E-1,4.153617E0,2.4648693E0,1.1878216E0,2.8859181E0],"split_indices":[0,3,0,1,1,1,2,3,2,0,0,2,0,3,3,3,0,0,3,2,3,2,3,0,2,1,0,2,3,0,0,0,1,2,1,0,2,0,3,0,1,2,2,2,0,1,0,0,0,3,3,0,0,2,0,3,0,0,0,0,0,0,0,0,0,0,0,0,0,0,0,0,0,0,0,0,0,0,0,0,0,0,0,0,0,0,0,0,0,0,0,0,0,0,0],"split_type":[0,0,0,0,0,0,0,0,0,0,0,0,0,0,0,0,0,0,0,0,0,0,0,0,0,0,0,0,0,0,0,0,0,0,0,0,0,0,0,0,0,0,0,0,0,0,0,0,0,0,0,0,0,0,0,0,0,0,0,0,0,0,0,0,0,0,0,0,0,0,0,0,0,0,0,0,0,0,0,0,0,0,0,0,0,0,0,0,0,0,0,0,0,0,0],"sum_hessian":[2.449E3,2.256E3,1.93E2,8.09E2,1.447E3,1.53E2,4E1,5.24E2,2.85E2,9.58E2,4.89E2,1.42E2,1.1E1,3.6E1,4E0,5E2,2.4E1,2.8E1,2.57E2,6.78E2,2.8E2,4.14E2,7.5E1,3E0,1.39E2,2E0,9E0,2.5E1,1.1E1,2E0,2E0,8.7E1,4.13E2,1.4E1,1E1,5E0,2.3E1,4.1E1,2.16E2,6.71E2,7E0,2.8E1,2.52E2,8.5E1,3.29E2,7.4E1,1E0,1E0,2E0,5E0,1.34E2,1E0,1E0,9E0,1.6E1,1E1,1E0,2.3E1,6.4E1,2.31E2,1.82E2,4E0,1E1,8E0,2E0,1.1E1,1.2E1,3.3E1,8E0,1.76E2,4E1,6.58E2,1.3E1,5E0,2E0,8E0,2E1,1.1E2,1.42E2,2E0,8.3E1,1.24E2,2.05E2,6.9E1,5E0,4E0,1E0,3E0,1.31E2,5E0,4E0,9E0,7E0,8E0,2E0],"tree_param":{"num_deleted":"0","num_feature":"4","num_nodes":"95","size_leaf_vector":"1"}},{"base_weights":[5.5862118E-2,-3.7597376E-1,2.3102543E0,5.008751E-1,-1.0203551E0,3.6053731E0,6.349557E-1,1.2567202E0,-5.32856E-1,-5.504462E-1,-1.8452402E0,3.362217E0,1.0593432E1,-2.667407E-1,2.9222434E0,2.2483015E0,-8.1270665E-1,1.5724653E-1,-1.5644095E0,-3.7448025E-1,-3.6142788E0,-2.10882E0,2.1670341E0,3.6134307E0,-3.6210265E0,1.1969612E1,3.5045302E-1,-6.24918E-1,5.860379E0,7.860152E-1,5.302935E0,3.2461836E0,-2.2375529E-1,-1.0349494E0,6.461604E0,1.3392674E0,-8.050245E-1,-1.1861591E0,-5.10008E0,-4.9608102E-1,1.7040688E1,-5.062468E0,-4.5973784E-1,-5.7153254E0,-1.8558438E0,7.5182943E0,-9.262788E-1,2.4994886E0,4.849636E0,9.508831E-1,-6.4128404E0,8.8181365E-1,3.956335E0,1.7220089E-1,-2.39616E0,-1.0484204E0,8.002021E0,2.484235E0,-2.8864505E0,9.005562E0,3.466387E0,8.299973E-1,2.7259665E0,-5.4480803E-1,1.2268686E0,-1.9870154E0,-2.3226278E-1,3.108307E-1,2.2676864E0,2.9091865E-1,3.8893323E0,-6.695462E-1,5.422339E-1,-1.0113684E0,5.7526915E-3,4.0039256E-1,-1.8851262E0,-1.0751545E-1,-1.2361964E0,8.486245E0,3.4098435E-2,-1.8667176E0,-8.11256E-1,5.51089E0,-9.9635994E-1,-1.9210113E0,-9.906957E-2,-3.4480378E-1,-9.120663E-1,3.8189824E0,1.0398506E0,-5.7656294E-1,2.3998318E0,1.2481425E0,-4.3001288E-1,2.2772744E0,7.4262875E-1,-2.54014E0,-4.608515E-1,-4.907123E-1,3.3669925E-1,-8.221267E-1,7.2568613E-1,3.1559367E0,-6.880231E-1,-3.0415693E-2,1.6105237E0,-5.2461237E-1,-1.7982589E0,9.962763E-1,3.18457E0,1.3869181E0,-4.345695E-1],"categories":[],"categories_nodes":[],"categories_segments":[],"categories_sizes":[],"default_left":[0,0,0,0,0,0,0,0,0,0,0,0,0,0,0,0,0,0,0,0,0,0,0,0,0,0,0,0,0,0,0,0,0,0,0,0,0,0,0,0,0,0,0,0,0,0,0,0,0,0,0,0,0,0,0,0,0,0,0,0,0,0,0,0,0,0,0,0,0,0,0,0,0,0,0,0,0,0,0,0,0,0,0,0,0,0,0,0,0,0,0,0,0,0,0,0,0,0,0,0,0,0,0,0,0,0,0,0,0,0,0,0,0],"id":5,"left_children":[1,3,5,7,9,11,13,15,17,19,21,23,25,27,29,31,33,35,37,39,41,43,45,47,49,51,-1,53,55,57,59,61,63,65,67,69,71,73,75,77,79,81,83,85,87,89,91,93,95,-1,97,-1,-1,99,101,-1,103,105,107,109,111,-1,-1,-1,-1,-1,-1,-1,-1,-1,-1,-1,-1,-1,-1,-1,-1,-1,-1,-1,-1,-1,-1,-1,-1,-1,-1,-1,-1,-1,-1,-1,-1,-1,-1,-1,-1,-1,-1,-1,-1,-1,-1,-1,-1,-1,-1,-1,-1,-1,-1,-1,-1],"loss_changes":[2.3860105E3,1.1627676E3,8.5257715E2,6.819986E2,4.5870264E2,3.4160303E2,3.5758142E2,1.0360378E3,2.6292886E2,4.0676807E2,4.59318E2,3.9201074E2,7.681323E1,2.7798666E2,2.4503119E2,8.4191235E2,2.718202E2,2.5358635E2,1.9188098E2,1.5268429E3,1.8497589E2,3.579867E2,4.5389835E2,2.7568433E2,1.7199179E2,2.7238403E1,0E0,1.6842757E2,1.6821202E2,1.7556027E2,1.2518445E2,6.554082E2,6.873559E2,2.2801288E2,2.1936539E1,4.17023E2,4.6251184E2,3.5561945E2,1.15019165E2,3.5437442E2,9.4865894E2,5.976544E1,8.153226E2,9.422034E1,3.136377E2,1.6705835E2,1.7532954E2,7.3759607E2,6.190288E2,0E0,4.710164E1,0E0,0E0,1.4440887E2,6.796246E1,0E0,1.7965524E2,1.4223462E2,2.1340233E1,2.8800476E1,1.0334169E2,0E0,0E0,0E0,0E0,0E0,0E0,0E0,0E0,0E0,0E0,0E0,0E0,0E0,0E0,0E0,0E0,0E0,0E0,0E0,0E0,0E0,0E0,0E0,0E0,0E0,0E0,0E0,0E0,0E0,0E0,0E0,0E0,0E0,0E0,0E0,0E0,0E0,0E0,0E0,0E0,0E0,0E0,0E0,0E0,0E0,0E0,0E0,0E0,0E0,0E0,0E0,0E0],"parents":[2147483647,0,0,1,1,2,2,3,3,4,4,5,5,6,6,7,7,8,8,9,9,10,10,11,11,12,12,13,13,14,14,15,15,16,16,17,17,18,18,19,19,20,20,21,21,22,22,23,23,24,24,25,25,27,27,28,28,29,29,30,30,31,31,32,32,33,33,34,34,35,35,36,36,37,37,38,38,39,39,40,40,41,41,42,42,43,43,44,44,45,45,46,46,47,47,48,48,50,50,53,53,54,54,56,56,57,57,58,58,59,59,60,60],"right_children":[2,4,6,8,10,12,14,16,18,20,22,24,26,28,30,32,34,36,38,40,42,44,46,48,50,52,-1,54,56,58,60,62,64,66,68,70,72,74,76,78,80,82,84,86,88,90,92,94,96,-1,98,-1,-1,100,102,-1,104,106,108,110,112,-1,-1,-1,-1,-1,-1,-1,-1,-1,-1,-1,-1,-1,-1,-1,-1,-1,-1,-1,-1,-1,-1,-1,-1,-1,-1,-1,-1,-1,-1,-1,-1,-1,-1,-1,-1,-1,-1,-1,-1,-1,-1,-1,-1,-1,-1,-1,-1,-1,-1,-1,-1],"split_conditions":[1.5912918E1,1.3479583E1,2.1284425E2,2.6283655E2,2.9283618E2,2.0716045E2,1.9394167E1,1.3E0,1.1726277E1,1.5052498E1,3.4632867E2,1.9642828E2,1E-1,3.393902E2,2.777049E2,8.512917E0,1.3237039E1,-4.262084E0,3.3408484E2,1.497125E1,1.8709612E1,-7.6725E0,1.3000001E0,1.3004922E1,1.0587917E1,1.673375E1,3.5045302E-1,3.1030957E2,1.6631666E1,1.476439E1,1.30447235E1,2.5641568E2,1.2229406E1,-5.793333E0,-6.4370837E0,-4.4558334E0,1.0829959E1,-4.4558334E0,-5.4933324E0,1.59E1,9.000001E-1,9.000001E-1,1.8899143E1,3.237222E2,2.1900904E1,1.5496736E1,1.259E1,1.1983188E1,5E-1,9.508831E-1,1.8506666E1,8.8181365E-1,3.956335E0,1.6877499E1,3.6999998E0,-1.0484204E0,1.8246252E1,1.27279215E1,2.640027E2,3.0325085E2,3.2687222E2,8.299973E-1,2.7259665E0,-5.4480803E-1,1.2268686E0,-1.9870154E0,-2.3226278E-1,3.108307E-1,2.2676864E0,2.9091865E-1,3.8893323E0,-6.695462E-1,5.422339E-1,-1.0113684E0,5.7526915E-3,4.0039256E-1,-1.8851262E0,-1.0751545E-1,-1.2361964E0,8.486245E0,3.4098435E-2,-1.8667176E0,-8.11256E-1,5.51089E0,-9.9635994E-1,-1.9210113E0,-9.906957E-2,-3.4480378E-1,-9.120663E-1,3.8189824E0,1.0398506E0,-5.7656294E-1,2.3998318E0,1.2481425E0,-4.3001288E-1,2.2772744E0,7.4262875E-1,-2.54014E0,-4.608515E-1,-4.907123E-1,3.3669925E-1,-8.221267E-1,7.2568613E-1,3.1559367E0,-6.880231E-1,-3.0415693E-2,1.6105237E0,-5.2461237E-1,-1.7982589E0,9.962763E-1,3.18457E0,1.3869181E0,-4.345695E-1],"split_indices":[0,2,3,3,3,3,0,1,2,0,3,3,1,3,3,0,2,0,3,0,2,0,1,2,2,0,0,3,0,2,2,3,2,0,0,0,2,0,0,1,1,1,2,3,2,2,0,2,1,0,0,0,0,0,1,0,0,2,3,3,3,0,0,0,0,0,0,0,0,0,0,0,0,0,0,0,0,0,0,0,0,0,0,0,0,0,0,0,0,0,0,0,0,0,0,0,0,0,0,0,0,0,0,0,0,0,0,0,0,0,0,0,0],"split_type":[0,0,0,0,0,0,0,0,0,0,0,0,0,0,0,0,0,0,0,0,0,0,0,0,0,0,0,0,0,0,0,0,0,0,0,0,0,0,0,0,0,0,0,0,0,0,0,0,0,0,0,0,0,0,0,0,0,0,0,0,0,0,0,0,0,0,0,0,0,0,0,0,0,0,0,0,0,0,0,0,0,0,0,0,0,0,0,0,0,0,0,0,0,0,0,0,0,0,0,0,0,0,0,0,0,0,0,0,0,0,0,0,0],"sum_hessian":[2.449E3,2.056E3,3.93E2,8.71E2,1.185E3,2.21E2,1.72E2,5.03E2,3.68E2,7.56E2,4.29E2,2.15E2,6E0,1.24E2,4.8E1,3.4E2,1.63E2,2.21E2,1.47E2,7.16E2,4E1,4.03E2,2.6E1,2.08E2,7E0,5E0,1E0,1.18E2,6E0,2.6E1,2.2E1,2.42E2,9.8E1,1.59E2,4E0,9.9E1,1.22E2,1.34E2,1.3E1,7.12E2,4E0,2.7E1,1.3E1,2.5E1,3.78E2,9E0,1.7E1,1.11E2,9.7E1,2E0,5E0,1E0,4E0,8.2E1,3.6E1,1E0,5E0,1.8E1,8E0,6E0,1.6E1,2.25E2,1.7E1,7.2E1,2.6E1,6E0,1.53E2,1E0,3E0,9.7E1,2E0,7.9E1,4.3E1,4.7E1,8.7E1,2E0,1.1E1,6.87E2,2.5E1,2E0,2E0,1.7E1,1E1,1E0,1.2E1,2.2E1,3E0,2.38E2,1.4E2,3E0,6E0,1.6E1,1E0,7.8E1,3.3E1,4.4E1,5.3E1,3E0,2E0,2.8E1,5.4E1,3.4E1,2E0,4E0,1E0,1E1,8E0,7E0,1E0,2E0,4E0,1.3E1,3E0],"tree_param":{"num_deleted":"0","num_feature":"4","num_nodes":"113","size_leaf_vector":"1"}},{"base_weights":[5.1803123E-2,-1.16265975E-1,3.1269274E0,8.583151E-1,-5.2748597E-1,9.023135E0,2.5458572E0,-5.4217076E-1,1.5781744E0,6.6094327E-1,-7.8100234E-1,-1.0512114E0,1.0626256E1,1.8604741E0,5.420899E0,-1.083539E0,2.5823207E0,-3.5506265E0,1.8339341E0,-1.2733251E-1,4.079163E0,-2.0361078E0,-6.162266E-1,6.3644946E-1,3.4006522E0,3.4740915E0,9.195535E-1,7.2389774E0,1.334389E0,1.4255455E0,-1.9017673E0,1.182634E1,-1.5105346E-1,-1.434695E0,-7.0741696E0,1.6591173E0,1.095739E1,-5.7129383E0,3.0683476E-1,1.3177662E1,2.881813E0,-2.491299E0,3.6337936E0,-2.226518E-1,-1.5084385E0,5.5549306E-1,6.9052086E0,-4.8803735E0,2.4091434E0,3.1039965E0,4.650473E0,-3.2830517E0,3.4207113E0,2.7419534E0,-1.4722809E-1,-4.2881912E-1,-1.5399383E0,4.7131786E0,1.2043312E0,1.9614515E-1,-2.1228745E0,-2.12476E0,-6.296056E-3,-2.3934593E0,-1.11896046E-1,7.0351017E-1,-1.2616457E-1,4.145817E0,4.7427866E-1,-2.8548617E0,1.5954435E0,3.5759363E0,-3.985116E-2,6.516072E0,-7.8149784E-1,3.4500113E0,4.9233148E-1,-8.237178E-1,8.7503767E-1,2.7457085E0,-8.0860555E-2,9.783381E-2,-3.413159E-1,-8.692611E-1,-2.041501E-1,9.716111E-1,-1.8735347E0,4.9041933E-1,2.9712067E0,-1.8055037E0,1.3162937E0,2.658472E0,3.9836022E-1,3.8035786E-1,1.7757126E0,-1.15342714E-1,-1.3620306E0,1.448861E0,-5.435123E-1],"categories":[],"categories_nodes":[],"categories_segments":[],"categories_sizes":[],"default_left":[0,0,0,0,0,0,0,0,0,0,0,0,0,0,0,0,0,0,0,0,0,0,0,0,0,0,0,0,0,0,0,0,0,0,0,0,0,0,0,0,0,0,0,0,0,0,0,0,0,0,0,0,0,0,0,0,0,0,0,0,0,0,0,0,0,0,0,0,0,0,0,0,0,0,0,0,0,0,0,0,0,0,0,0,0,0,0,0,0,0,0,0,0,0,0,0,0,0,0],"id":6,"left_children":[1,3,5,7,9,11,13,15,17,19,21,-1,23,25,27,29,31,33,35,37,39,41,43,-1,-1,45,47,49,51,53,55,57,59,61,63,65,67,69,71,73,75,77,79,81,83,85,87,89,91,-1,93,95,97,-1,-1,-1,-1,-1,-1,-1,-1,-1,-1,-1,-1,-1,-1,-1,-1,-1,-1,-1,-1,-1,-1,-1,-1,-1,-1,-1,-1,-1,-1,-1,-1,-1,-1,-1,-1,-1,-1,-1,-1,-1,-1,-1,-1,-1,-1],"loss_changes":[1.2666052E3,9.318358E2,4.121444E2,6.9648096E2,4.9311926E2,2.5814307E2,2.2046356E2,4.003007E2,6.046653E2,7.7653534E2,2.7752643E2,0E0,3.627185E1,1.4256082E2,1.537915E2,4.153648E2,8.8614417E2,1.5387338E2,6.7561633E2,5.716485E2,5.5030536E2,4.1167145E2,4.1858865E2,0E0,0E0,3.4665607E2,5.474072E2,7.254675E1,8.829813E1,7.4363324E2,2.246753E2,1.796781E2,1.6069534E2,1.1961726E2,4.548871E1,6.1151855E2,1.9283588E2,7.6382935E2,1.1197732E3,8.6552795E2,5.0506955E2,2.075235E2,2.609563E2,4.1665894E2,4.1781018E2,3.8517535E2,2.366925E2,1.6351407E2,3.3707593E2,0E0,3.5406265E1,9.18541E0,5.2979088E1,0E0,0E0,0E0,0E0,0E0,0E0,0E0,0E0,0E0,0E0,0E0,0E0,0E0,0E0,0E0,0E0,0E0,0E0,0E0,0E0,0E0,0E0,0E0,0E0,0E0,0E0,0E0,0E0,0E0,0E0,0E0,0E0,0E0,0E0,0E0,0E0,0E0,0E0,0E0,0E0,0E0,0E0,0E0,0E0,0E0,0E0],"parents":[2147483647,0,0,1,1,2,2,3,3,4,4,5,5,6,6,7,7,8,8,9,9,10,10,12,12,13,13,14,14,15,15,16,16,17,17,18,18,19,19,20,20,21,21,22,22,25,25,26,26,27,27,28,28,29,29,30,30,31,31,32,32,33,33,34,34,35,35,36,36,37,37,38,38,39,39,40,40,41,41,42,42,43,43,44,44,45,45,46,46,47,47,48,48,50,50,51,51,52,52],"right_children":[2,4,6,8,10,12,14,16,18,20,22,-1,24,26,28,30,32,34,36,38,40,42,44,-1,-1,46,48,50,52,54,56,58,60,62,64,66,68,70,72,74,76,78,80,82,84,86,88,90,92,-1,94,96,98,-1,-1,-1,-1,-1,-1,-1,-1,-1,-1,-1,-1,-1,-1,-1,-1,-1,-1,-1,-1,-1,-1,-1,-1,-1,-1,-1,-1,-1,-1,-1,-1,-1,-1,-1,-1,-1,-1,-1,-1,-1,-1,-1,-1,-1,-1],"split_conditions":[1.9394167E1,1.755013E2,1.9650417E1,7.344285E1,1.1183201E1,5.384827E1,2.2600416E1,1.4771251E1,-3.3808339E0,1.0759423E1,-4.4558334E0,-1.0512114E0,8.534353E0,1.2657314E2,1.3281023E1,-2.1787503E0,1.0383987E1,1.1317372E2,2.291026E1,1.9801447E2,1.0829958E1,3.3669073E2,8.000001E-1,6.3644946E-1,3.4006522E0,8.925108E1,1.598423E2,1.1155404E2,1.0976725E2,1E-1,1.2400001E1,3.8000002E0,6.9075424E1,7.547748E1,1.3580684E2,4.9E0,1.4929114E2,9.793058E0,2.0319856E2,1.1879169E0,2.0228564E2,2.6999998E0,2E-1,9.075416E0,5.4524994E0,7.547748E1,2.0381668E1,2.2031664E1,1.7764905E2,3.1039965E0,1.5854741E2,2.3158752E1,1.70763E1,2.7419534E0,-1.4722809E-1,-4.2881912E-1,-1.5399383E0,4.7131786E0,1.2043312E0,1.9614515E-1,-2.1228745E0,-2.12476E0,-6.296056E-3,-2.3934593E0,-1.11896046E-1,7.0351017E-1,-1.2616457E-1,4.145817E0,4.7427866E-1,-2.8548617E0,1.5954435E0,3.5759363E0,-3.985116E-2,6.516072E0,-7.8149784E-1,3.4500113E0,4.9233148E-1,-8.237178E-1,8.7503767E-1,2.7457085E0,-8.0860555E-2,9.783381E-2,-3.413159E-1,-8.692611E-1,-2.041501E-1,9.716111E-1,-1.8735347E0,4.9041933E-1,2.9712067E0,-1.8055037E0,1.3162937E0,2.658472E0,3.9836022E-1,3.8035786E-1,1.7757126E0,-1.15342714E-1,-1.3620306E0,1.448861E0,-5.435123E-1],"split_indices":[0,3,0,3,2,3,0,0,0,2,0,0,2,3,2,0,2,3,2,3,2,3,1,0,0,3,3,3,3,1,1,1,3,3,3,1,3,2,3,0,3,1,1,0,0,3,0,0,3,0,3,0,2,0,0,0,0,0,0,0,0,0,0,0,0,0,0,0,0,0,0,0,0,0,0,0,0,0,0,0,0,0,0,0,0,0,0,0,0,0,0,0,0,0,0,0,0,0,0],"split_type":[0,0,0,0,0,0,0,0,0,0,0,0,0,0,0,0,0,0,0,0,0,0,0,0,0,0,0,0,0,0,0,0,0,0,0,0,0,0,0,0,0,0,0,0,0,0,0,0,0,0,0,0,0,0,0,0,0,0,0,0,0,0,0,0,0,0,0,0,0,0,0,0,0,0,0,0,0,0,0,0,0,0,0,0,0,0,0,0,0,0,0,0,0,0,0,0,0,0,0],"sum_hessian":[2.449E3,2.323E3,1.26E2,6.89E2,1.634E3,1E1,1.16E2,2.34E2,4.55E2,2.87E2,1.347E3,1E0,9E0,9.5E1,2.1E1,2E2,3.4E1,2.1E1,4.34E2,2.34E2,5.3E1,1.55E2,1.192E3,1E0,8E0,3.4E1,6.1E1,1.4E1,7E0,4.9E1,1.51E2,7E0,2.7E1,1.4E1,7E0,4.27E2,7E0,1.6E1,2.18E2,5E0,4.8E1,1.44E2,1.1E1,8.28E2,3.64E2,1.9E1,1.5E1,1.2E1,4.9E1,5E0,9E0,2E0,5E0,9E0,4E1,1.33E2,1.8E1,4E0,3E0,2.5E1,2E0,2E0,1.2E1,6E0,1E0,3.21E2,1.06E2,5E0,2E0,1.2E1,4E0,7E0,2.11E2,3E0,2E0,5E0,4.3E1,1.38E2,6E0,4E0,7E0,5.18E2,3.1E2,1.35E2,2.29E2,1.4E1,5E0,6E0,9E0,1.1E1,1E0,6E0,4.3E1,3E0,6E0,1E0,1E0,4E0,1E0],"tree_param":{"num_deleted":"0","num_feature":"4","num_nodes":"99","size_leaf_vector":"1"}},{"base_weights":[4.905072E-2,-1.8358181E-1,1.263457E0,2.768205E0,-2.5097674E-1,2.5124078E0,8.0099255E-1,3.6921408E0,1.5667083E0,-2.3813674E0,-1.5461384E-1,1.3673055E1,2.1663082E0,-4.5179117E-1,1.3698485E0,4.591356E0,-1.1315377E0,1.185727E0,-4.2795877E0,5.3869457E0,-2.4216901E-1,5.9581594E0,1.9471551E-1,2.7938192E0,-1.4596162E0,-3.0213487E0,2.1275878E0,7.4411864E0,1.1425468E0,3.597638E0,1.3249575E0,-5.100196E0,-2.7599435E-2,6.382299E0,-5.9086874E-2,-8.617073E0,-1.8840802E0,8.125068E0,-1.9047911E0,5.2821063E-2,-8.5422754E-1,1.7662327E0,6.250681E0,-3.2476552E0,7.3437977E-1,-9.094986E0,-2.2263598E0,5.0347486E0,-7.470908E-1,5.7058463E0,-9.940319E-1,8.293152E0,9.8599434E-1,-1.9290264E0,1.4188583E0,9.5858693E-1,-2.391867E0,9.854929E-1,-3.389854E-1,2.8609657E0,-1.4083455E0,-1.7970902E-1,2.0159237E0,-3.4241455E0,-5.6710247E-2,1.1856865E0,-9.305725E-1,4.1499805E0,9.327417E-1,2.1047202E-1,-1.6014421E0,-5.531218E-1,5.018778E-2,-1.6155237E-1,-6.277777E-1,-2.8179708E-1,8.601725E-1,2.3979018E0,5.619235E-1,-1.1719224E0,3.0335486E-1,-6.5330577E-1,8.751469E-1,-3.0486947E-1,-3.2581851E0,-3.1996563E-1,-1.749327E0,8.372094E-1,2.9296012E0,-4.035298E-1,1.9510655E0,-4.0391847E-1,-9.30975E-2,-2.9169503E-1,3.5117242E0,1.8368223E-1,1.0636145E0],"categories":[],"categories_nodes":[],"categories_segments":[],"categories_sizes":[],"default_left":[0,0,0,0,0,0,0,0,0,0,0,0,0,0,0,0,0,0,0,0,0,0,0,0,0,0,0,0,0,0,0,0,0,0,0,0,0,0,0,0,0,0,0,0,0,0,0,0,0,0,0,0,0,0,0,0,0,0,0,0,0,0,0,0,0,0,0,0,0,0,0,0,0,0,0,0,0,0,0,0,0,0,0,0,0,0,0,0,0,0,0,0,0,0,0,0,0],"id":7,"left_children":[1,3,5,7,9,11,13,-1,15,17,19,21,23,25,27,29,31,33,35,37,39,-1,-1,41,43,45,47,49,51,-1,53,55,57,59,61,63,65,67,69,71,73,75,77,79,81,83,85,87,89,-1,91,93,95,-1,-1,-1,-1,-1,-1,-1,-1,-1,-1,-1,-1,-1,-1,-1,-1,-1,-1,-1,-1,-1,-1,-1,-1,-1,-1,-1,-1,-1,-1,-1,-1,-1,-1,-1,-1,-1,-1,-1,-1,-1,-1,-1,-1],"loss_changes":[6.9238245E2,4.0990503E2,2.2556012E2,5.0792407E2,4.126766E2,3.7982562E2,2.0657573E2,0E0,3.4796747E2,5.9416284E2,9.357847E2,2.2886658E2,2.4070984E2,6.095637E2,2.6612305E2,4.6758823E2,1.0062576E2,2.0090883E2,5.76022E2,6.1444653E2,3.4255072E2,0E0,0E0,3.051079E2,6.515222E1,2.0186111E2,3.8819043E2,7.025646E2,2.0787587E2,0E0,4.2645016E2,1.4462764E2,7.309272E1,2.5440312E2,9.919011E1,4.692638E2,2.82352E2,5.868928E2,8.428212E1,2.7841632E2,2.4010532E2,2.1121216E2,1.3757245E2,2.9199776E1,5.7203754E1,6.02836E1,1.693742E2,2.1690857E2,1.1281061E2,0E0,7.867446E-1,1.3785886E2,1.7956325E2,0E0,0E0,0E0,0E0,0E0,0E0,0E0,0E0,0E0,0E0,0E0,0E0,0E0,0E0,0E0,0E0,0E0,0E0,0E0,0E0,0E0,0E0,0E0,0E0,0E0,0E0,0E0,0E0,0E0,0E0,0E0,0E0,0E0,0E0,0E0,0E0,0E0,0E0,0E0,0E0,0E0,0E0,0E0,0E0],"parents":[2147483647,0,0,1,1,2,2,3,3,4,4,5,5,6,6,8,8,9,9,10,10,11,11,12,12,13,13,14,14,15,15,16,16,17,17,18,18,19,19,20,20,23,23,24,24,25,25,26,26,27,27,28,28,30,30,31,31,32,32,33,33,34,34,35,35,36,36,37,37,38,38,39,39,40,40,41,41,42,42,43,43,44,44,45,45,46,46,47,47,48,48,50,50,51,51,52,52],"right_children":[2,4,6,8,10,12,14,-1,16,18,20,22,24,26,28,30,32,34,36,38,40,-1,-1,42,44,46,48,50,52,-1,54,56,58,60,62,64,66,68,70,72,74,76,78,80,82,84,86,88,90,-1,92,94,96,-1,-1,-1,-1,-1,-1,-1,-1,-1,-1,-1,-1,-1,-1,-1,-1,-1,-1,-1,-1,-1,-1,-1,-1,-1,-1,-1,-1,-1,-1,-1,-1,-1,-1,-1,-1,-1,-1,-1,-1,-1,-1,-1,-1],"split_conditions":[1.5912918E1,7.386582E0,1.2298853E2,-9.220417E0,8.913181E0,1.6029581E1,1.7098333E1,3.6921408E0,1.6108438E2,-3.1558332E0,9.227524E0,1E-1,1.629174E1,1.4255272E1,1.717125E1,1E-1,2.1845767E2,1.5079951E2,1E-1,2.9126416E2,2.9283618E2,5.9581594E0,1.9471551E-1,2.9000003E0,1.8246252E1,1.3174057E2,1.6704155E1,1E-1,8.049845E0,3.597638E0,6.638072E0,-3.0620835E0,2.5535806E2,9E-1,3.3535318E2,2.0228564E2,4E-1,9.12513E0,-2.4120836E0,3.289101E1,2.2468296E1,1.7615002E1,1.05E1,2.5299997E1,6.660223E1,9.12513E0,1.6877499E1,1.6135872E1,1.3600001E1,5.7058463E0,7E-1,1.8354586E1,2.1544167E1,-1.9290264E0,1.4188583E0,9.5858693E-1,-2.391867E0,9.854929E-1,-3.389854E-1,2.8609657E0,-1.4083455E0,-1.7970902E-1,2.0159237E0,-3.4241455E0,-5.6710247E-2,1.1856865E0,-9.305725E-1,4.1499805E0,9.327417E-1,2.1047202E-1,-1.6014421E0,-5.531218E-1,5.018778E-2,-1.6155237E-1,-6.277777E-1,-2.8179708E-1,8.601725E-1,2.3979018E0,5.619235E-1,-1.1719224E0,3.0335486E-1,-6.5330577E-1,8.751469E-1,-3.0486947E-1,-3.2581851E0,-3.1996563E-1,-1.749327E0,8.372094E-1,2.9296012E0,-4.035298E-1,1.9510655E0,-4.0391847E-1,-9.30975E-2,-2.9169503E-1,3.5117242E0,1.8368223E-1,1.0636145E0],"split_indices":[0,2,3,0,2,0,0,0,3,0,2,1,2,2,0,1,3,3,1,3,3,0,0,1,0,3,2,1,2,0,2,0,3,1,3,3,1,2,0,3,2,0,1,1,3,2,0,2,1,0,1,0,0,0,0,0,0,0,0,0,0,0,0,0,0,0,0,0,0,0,0,0,0,0,0,0,0,0,0,0,0,0,0,0,0,0,0,0,0,0,0,0,0,0,0,0,0],"split_type":[0,0,0,0,0,0,0,0,0,0,0,0,0,0,0,0,0,0,0,0,0,0,0,0,0,0,0,0,0,0,0,0,0,0,0,0,0,0,0,0,0,0,0,0,0,0,0,0,0,0,0,0,0,0,0,0,0,0,0,0,0,0,0,0,0,0,0,0,0,0,0,0,0,0,0,0,0,0,0,0,0,0,0,0,0,0,0,0,0,0,0,0,0,0,0,0,0],"sum_hessian":[2.449E3,2.056E3,3.93E2,4.5E1,2.011E3,1.05E2,2.88E2,4E0,4.1E1,8.6E1,1.925E3,2E0,1.03E2,9E1,1.98E2,1.9E1,2.2E1,3E1,5.6E1,2.9E1,1.896E3,1E0,1E0,8.8E1,1.5E1,4.5E1,4.5E1,6E0,1.92E2,5E0,1.4E1,4E0,1.8E1,5E0,2.5E1,1.9E1,3.7E1,2.1E1,8E0,1.28E3,6.16E2,6.9E1,1.9E1,8E0,7E0,4E0,4.1E1,2.2E1,2.3E1,2E0,4E0,3E0,1.89E2,4E0,1E1,1E0,3E0,4E0,1.4E1,4E0,1E0,2.4E1,1E0,1.4E1,5E0,6E0,3.1E1,9E0,1.2E1,5E0,3E0,7.2E1,1.208E3,4.92E2,1.24E2,2E1,4.9E1,1.3E1,6E0,7E0,1E0,3E0,4E0,1E0,3E0,3.2E1,9E0,1.6E1,6E0,2.2E1,1E0,2E0,2E0,1E0,2E0,1.66E2,2.3E1],"tree_param":{"num_deleted":"0","num_feature":"4","num_nodes":"97","size_leaf_vector":"1"}},{"base_weights":[4.5297872E-2,6.101493E-1,-2.9950655E-1,4.8284236E-1,4.4090214E0,-4.104118E0,-2.4868038E-1,6.1914814E-1,-1.5066166E0,5.8186895E-1,8.197382E0,-4.901561E0,3.1104422E-1,3.8413844E0,-3.0363497E-1,-3.236672E0,7.024237E-1,4.731625E0,-3.9957473E0,5.9565754E0,-5.5374093E0,9.940719E0,-6.268607E-1,-7.34795E0,-2.4542933E0,1.2411613E0,-3.718961E-1,9.432588E0,-6.7213345E-1,5.8912486E-1,-4.6031672E-1,-4.5056868E0,2.331301E0,-5.2918047E-2,1.0082473E0,2.1454618E1,1.0715849E0,-7.5044527E0,-1.3096495E0,-9.6286166E-1,9.033971E0,-1.0594628E0,-2.4036853E0,2.2801895E-1,1.0642435E1,-2.5145974E0,-8.49165E-1,-3.252346E0,4.9194527E-1,4.5092583E-2,5.1343006E-1,-3.1279058E0,1.6234152E1,-3.2108753E0,2.4017544E0,-7.595227E-2,7.698946E0,-3.911843E0,-4.1008574E-1,3.1655216E-1,-1.7951499E0,-4.8049167E-2,9.6455324E-1,8.11227E-1,-1.5231039E-1,6.0075104E-1,1.0220275E-1,8.147988E-1,8.83978E0,2.2411842E0,-5.803444E-1,-1.5335222E0,-2.5687156E0,-1.2193321E0,2.3935215E-1,4.856168E0,-1.1333342E-1,-9.0838563E-1,7.269007E-1,3.3781574E0,5.765179E-1,3.0159304E-1,-1.2012596E0,4.120002E-1,-1.9062482E-1,-2.0422351E0,1.186609E0,9.309663E-1,5.4719086E0,-1.2353995E0,3.3477917E-1,1.9264452E0,9.405351E-2,1.7863347E-1,-6.3054574E-1,-7.513224E-1,3.1760404E0,-1.8120549E0,4.054599E-1,1.5461743E0,-1.3506109E-1],"categories":[],"categories_nodes":[],"categories_segments":[],"categories_sizes":[],"default_left":[0,0,0,0,0,0,0,0,0,0,0,0,0,0,0,0,0,0,0,0,0,0,0,0,0,0,0,0,0,0,0,0,0,0,0,0,0,0,0,0,0,0,0,0,0,0,0,0,0,0,0,0,0,0,0,0,0,0,0,0,0,0,0,0,0,0,0,0,0,0,0,0,0,0,0,0,0,0,0,0,0,0,0,0,0,0,0,0,0,0,0,0,0,0,0,0,0,0,0,0,0],"id":8,"left_children":[1,3,5,7,9,11,13,15,17,19,21,23,25,27,29,31,33,35,37,39,41,43,-1,45,47,49,-1,51,53,55,57,59,61,63,65,67,69,71,73,-1,75,77,-1,-1,79,-1,-1,81,83,-1,-1,85,87,89,91,93,95,97,99,-1,-1,-1,-1,-1,-1,-1,-1,-1,-1,-1,-1,-1,-1,-1,-1,-1,-1,-1,-1,-1,-1,-1,-1,-1,-1,-1,-1,-1,-1,-1,-1,-1,-1,-1,-1,-1,-1,-1,-1,-1,-1],"loss_changes":[4.7735278E2,4.471569E2,2.932943E2,2.4499011E2,4.3018927E2,7.1941376E1,3.3899246E2,2.7295712E2,9.195188E2,5.592132E2,2.897749E2,8.374448E1,7.3079324E0,5.1105988E2,2.0785184E2,1.3768924E2,1.9086035E2,1.0175255E3,3.8601044E2,2.8286475E2,8.017015E1,7.565979E1,0E0,1.3643768E1,2.5112514E1,1.2817502E0,0E0,8.1965796E2,1.0135744E2,1.0503295E3,2.1736658E2,1.2961047E2,9.323542E0,3.0104086E2,3.8959515E2,3.7033362E2,3.029903E2,1.795166E0,1.4838513E2,0E0,4.7738776E2,3.475751E1,0E0,0E0,4.3042603E1,0E0,0E0,2.9634483E1,3.853569E0,0E0,0E0,1.3117874E2,1.01406006E2,3.207E1,4.8351818E1,2.787244E2,5.86364E2,2.0980405E2,2.8044714E2,0E0,0E0,0E0,0E0,0E0,0E0,0E0,0E0,0E0,0E0,0E0,0E0,0E0,0E0,0E0,0E0,0E0,0E0,0E0,0E0,0E0,0E0,0E0,0E0,0E0,0E0,0E0,0E0,0E0,0E0,0E0,0E0,0E0,0E0,0E0,0E0,0E0,0E0,0E0,0E0,0E0,0E0],"parents":[2147483647,0,0,1,1,2,2,3,3,4,4,5,5,6,6,7,7,8,8,9,9,10,10,11,11,12,12,13,13,14,14,15,15,16,16,17,17,18,18,19,19,20,20,21,21,23,23,24,24,25,25,27,27,28,28,29,29,30,30,31,31,32,32,33,33,34,34,35,35,36,36,37,37,38,38,40,40,41,41,44,44,47,47,48,48,51,51,52,52,53,53,54,54,55,55,56,56,57,57,58,58],"right_children":[2,4,6,8,10,12,14,16,18,20,22,24,26,28,30,32,34,36,38,40,42,44,-1,46,48,50,-1,52,54,56,58,60,62,64,66,68,70,72,74,-1,76,78,-1,-1,80,-1,-1,82,84,-1,-1,86,88,90,92,94,96,98,100,-1,-1,-1,-1,-1,-1,-1,-1,-1,-1,-1,-1,-1,-1,-1,-1,-1,-1,-1,-1,-1,-1,-1,-1,-1,-1,-1,-1,-1,-1,-1,-1,-1,-1,-1,-1,-1,-1,-1,-1,-1,-1],"split_conditions":[2.1284425E2,2.0716045E2,2.1691603E2,1.9642828E2,4.410833E0,1.8354586E1,2.2068108E2,-7.224582E0,2.7941668E0,1.3397612E1,1.662249E1,2.1424907E2,1.9650417E1,1E-1,1.0944532E1,9.869832E1,7.344285E1,9.12513E0,1.9916553E2,-9.079167E-1,5.2750003E-1,8.707238E0,-6.268607E-1,3.2999995E0,2.4344624E1,1.8615E1,-3.718961E-1,1.0739832E1,1.1625416E1,1.0759423E1,1.1113451E1,1.0489809E1,1E-1,-2.6474998E0,1.2298853E2,-3.0620835E0,-3.9245842E0,1E-1,1.1542478E1,-9.6286166E-1,-2.7041668E-1,3.6500004E-1,-2.4036853E0,2.2801895E-1,1.8506666E1,-2.5145974E0,-8.49165E-1,-3.808333E-1,1.23670845E1,4.5092583E-2,5.1343006E-1,1.1796249E1,3.1775E0,3.8000002E0,1.1715001E1,1.0233123E1,-7.6725E0,2E-1,1.1183201E1,3.1655216E-1,-1.7951499E0,-4.8049167E-2,9.6455324E-1,8.11227E-1,-1.5231039E-1,6.0075104E-1,1.0220275E-1,8.147988E-1,8.83978E0,2.2411842E0,-5.803444E-1,-1.5335222E0,-2.5687156E0,-1.2193321E0,2.3935215E-1,4.856168E0,-1.1333342E-1,-9.0838563E-1,7.269007E-1,3.3781574E0,5.765179E-1,3.0159304E-1,-1.2012596E0,4.120002E-1,-1.9062482E-1,-2.0422351E0,1.186609E0,9.309663E-1,5.4719086E0,-1.2353995E0,3.3477917E-1,1.9264452E0,9.405351E-2,1.7863347E-1,-6.3054574E-1,-7.513224E-1,3.1760404E0,-1.8120549E0,4.054599E-1,1.5461743E0,-1.3506109E-1],"split_indices":[3,3,3,3,0,0,3,0,0,2,2,3,0,1,2,3,3,2,3,0,0,2,0,1,2,0,0,2,0,2,2,3,1,0,3,0,0,1,2,0,0,0,0,0,0,0,0,0,0,0,0,0,0,1,0,2,0,1,2,0,0,0,0,0,0,0,0,0,0,0,0,0,0,0,0,0,0,0,0,0,0,0,0,0,0,0,0,0,0,0,0,0,0,0,0,0,0,0,0,0,0],"split_type":[0,0,0,0,0,0,0,0,0,0,0,0,0,0,0,0,0,0,0,0,0,0,0,0,0,0,0,0,0,0,0,0,0,0,0,0,0,0,0,0,0,0,0,0,0,0,0,0,0,0,0,0,0,0,0,0,0,0,0,0,0,0,0,0,0,0,0,0,0,0,0,0,0,0,0,0,0,0,0,0,0,0,0,0,0,0,0,0,0,0,0,0,0,0,0,0,0,0,0,0,0],"sum_hessian":[2.449E3,9.28E2,1.521E3,8.99E2,2.9E1,1.9E1,1.502E3,8.42E2,5.7E1,1.5E1,1.4E1,1.6E1,3E0,1.9E1,1.483E3,1.7E1,8.25E2,1.6E1,4.1E1,8E0,7E0,1.2E1,2E0,7E0,9E0,2E0,1E0,8E0,1.1E1,2.21E2,1.262E3,1.4E1,3E0,2.38E2,5.87E2,2E0,1.4E1,1.7E1,2.4E1,2E0,6E0,3E0,4E0,1E0,1.1E1,5E0,2E0,7E0,2E0,1E0,1E0,3E0,5E0,6E0,5E0,2.03E2,1.8E1,1.7E1,1.245E3,3E0,1.1E1,1E0,2E0,3.3E1,2.05E2,2.35E2,3.52E2,1E0,1E0,4E0,1E1,7E0,1E1,1E1,1.4E1,3E0,3E0,2E0,1E0,1E1,1E0,1E0,6E0,1E0,1E0,2E0,1E0,1E0,4E0,5E0,1E0,1E0,4E0,1.53E2,5E1,4E0,1.4E1,1.2E1,5E0,8E0,1.237E3],"tree_param":{"num_deleted":"0","num_feature":"4","num_nodes":"101","size_leaf_vector":"1"}},{"base_weights":[3.8472895E-2,-4.7396082E-2,1.6095047E0,1.8485774E0,-9.588266E-2,5.9948354E0,1.1834521E0,9.210515E0,1.1326836E0,-7.001149E0,-6.525885E-2,-9.9970895E-1,7.260792E0,-2.3429532E0,1.4990133E0,1.2113187E0,3.393939E0,7.1341896E-1,3.5030568E0,-9.560576E0,-7.718644E-1,4.048539E-1,-2.693807E-1,8.974454E0,1.1256719E0,-2.5593073E0,2.7044225E-1,6.219011E0,1.2576767E0,-3.2718203E0,1.494613E0,4.276214E-1,-3.4887424E0,6.8106776E-1,-7.695992E-1,2.2408493E-1,2.2147608E0,-1.9031053E0,-1.9326508E-1,4.522194E0,3.5757947E0,2.3495224E0,-3.9778652E0,-1.1086127E0,2.8864355E0,-3.6352615E0,1.6482522E0,4.078646E-1,-1.436787E0,1.4560486E0,1.18878335E-1,4.9374964E-2,2.5710556E-1,1.4831632E-1,-3.296829E-1,1.666552E0,-5.7724234E-2,-1.9196655E-1,-1.5087459E0,5.807132E-1,-8.6266674E-2,2.7918836E-1,1.6227521E0,1.1173931E0,2.192402E-1,-1.5955669E0,-1.9447261E-1,8.307879E-1,-1.4837434E0,1.9569105E0,4.1053325E-1],"categories":[],"categories_nodes":[],"categories_segments":[],"categories_sizes":[],"default_left":[0,0,0,0,0,0,0,0,0,0,0,0,0,0,0,0,0,0,0,0,0,0,0,0,0,0,0,0,0,0,0,0,0,0,0,0,0,0,0,0,0,0,0,0,0,0,0,0,0,0,0,0,0,0,0,0,0,0,0,0,0,0,0,0,0,0,0,0,0,0,0],"id":9,"left_children":[1,3,5,7,9,11,13,15,17,19,21,-1,23,25,27,-1,-1,29,-1,31,33,35,37,39,-1,-1,41,43,45,47,49,-1,-1,51,-1,53,55,57,59,61,-1,63,65,-1,-1,67,69,-1,-1,-1,-1,-1,-1,-1,-1,-1,-1,-1,-1,-1,-1,-1,-1,-1,-1,-1,-1,-1,-1,-1,-1],"loss_changes":[3.3058838E2,2.1382085E2,2.3018979E2,2.9524857E2,4.7893542E2,1.540817E2,1.337093E2,8.702545E0,2.3039261E2,1.5205457E2,2.1678738E2,0E0,2.645044E1,1.6402591E2,1.1520213E2,0E0,0E0,1.698921E2,0E0,1.7565265E2,1.2170302E1,2.2329144E2,1.9548648E2,2.4766266E1,0E0,0E0,8.000665E1,2.0422041E2,2.047423E2,6.976292E1,1.640923E2,0E0,0E0,1.3157666E-1,0E0,2.233394E2,4.9960825E2,2.7320325E2,3.0287433E2,7.7086563E0,0E0,1.0633659E1,9.944275E0,0E0,0E0,8.0844284E1,1.2338199E2,0E0,0E0,0E0,0E0,0E0,0E0,0E0,0E0,0E0,0E0,0E0,0E0,0E0,0E0,0E0,0E0,0E0,0E0,0E0,0E0,0E0,0E0,0E0,0E0],"parents":[2147483647,0,0,1,1,2,2,3,3,4,4,5,5,6,6,7,7,8,8,9,9,10,10,12,12,13,13,14,14,17,17,19,19,20,20,21,21,22,22,23,23,26,26,27,27,28,28,29,29,30,30,33,33,35,35,36,36,37,37,38,38,39,39,41,41,42,42,45,45,46,46],"right_children":[2,4,6,8,10,12,14,16,18,20,22,-1,24,26,28,-1,-1,30,-1,32,34,36,38,40,-1,-1,42,44,46,48,50,-1,-1,52,-1,54,56,58,60,62,-1,64,66,-1,-1,68,70,-1,-1,-1,-1,-1,-1,-1,-1,-1,-1,-1,-1,-1,-1,-1,-1,-1,-1,-1,-1,-1,-1,-1,-1],"split_conditions":[1.9394167E1,7.5942073E0,1.9650417E1,-9.220417E0,7.69592E0,5.384827E1,1.9817083E1,-1.1826665E1,1.8354586E1,1.6108438E2,1.8227708E2,-9.9970895E-1,1.9642828E2,8.925108E1,4.6023018E1,1.2113187E0,3.393939E0,-3.5933335E0,3.5030568E0,3.819543E1,1.3E0,1.6268425E2,1.9916553E2,1.212047E2,1.1256719E0,-2.5593073E0,1.59134655E1,2E-1,6.438696E1,5.991594E0,-2.7041668E-1,4.276214E-1,-3.4887424E0,-1.7074585E1,-7.695992E-1,1.4437347E2,5.6399994E0,1.9642828E2,2.1284425E2,1.1043261E1,3.5757947E0,8E-1,1.594601E1,-1.1086127E0,2.8864355E0,1.0587917E1,7.547748E1,4.078646E-1,-1.436787E0,1.4560486E0,1.18878335E-1,4.9374964E-2,2.5710556E-1,1.4831632E-1,-3.296829E-1,1.666552E0,-5.7724234E-2,-1.9196655E-1,-1.5087459E0,5.807132E-1,-8.6266674E-2,2.7918836E-1,1.6227521E0,1.1173931E0,2.192402E-1,-1.5955669E0,-1.9447261E-1,8.307879E-1,-1.4837434E0,1.9569105E0,4.1053325E-1],"split_indices":[0,2,0,0,2,3,0,0,0,3,3,0,3,3,3,0,0,0,0,3,1,3,3,3,0,0,2,1,3,2,0,0,0,0,0,3,0,3,3,2,0,1,2,0,0,2,3,0,0,0,0,0,0,0,0,0,0,0,0,0,0,0,0,0,0,0,0,0,0,0,0],"split_type":[0,0,0,0,0,0,0,0,0,0,0,0,0,0,0,0,0,0,0,0,0,0,0,0,0,0,0,0,0,0,0,0,0,0,0,0,0,0,0,0,0,0,0,0,0,0,0,0,0,0,0,0,0,0,0,0,0,0,0,0,0,0,0,0,0,0,0,0,0,0,0],"sum_hessian":[2.449E3,2.323E3,1.26E2,5.7E1,2.266E3,1E1,1.16E2,4E0,5.3E1,9E0,2.257E3,1E0,9E0,9E0,1.07E2,2E0,2E0,5.2E1,1E0,6E0,3E0,6.83E2,1.574E3,5E0,4E0,2E0,7E0,4E0,1.03E2,8E0,4.4E1,1E0,5E0,2E0,1E0,6.22E2,6.1E1,6.9E1,1.505E3,3E0,2E0,5E0,2E0,1E0,3E0,7E0,9.6E1,2E0,6E0,1E1,3.4E1,1E0,1E0,5.17E2,1.05E2,2.5E1,3.6E1,5E1,1.9E1,6.3E1,1.442E3,1E0,2E0,2E0,3E0,1E0,1E0,1E0,6E0,4E0,9.2E1],"tree_param":{"num_deleted":"0","num_feature":"4","num_nodes":"71","size_leaf_vector":"1"}},{"base_weights":[3.1598546E-2,-9.878363E-2,7.122192E-1,-4.4302594E-2,-2.7115214E0,6.25667E-1,3.6689303E0,-7.896494E-2,3.8076048E0,-3.328052E0,2.516416E0,7.0386684E-1,-3.1377077E0,-1.1359984E0,4.7931557E0,-5.456868E-2,-6.143763E0,-3.3199399E0,4.906044E0,-2.4243054E0,-5.9707565E0,1.0722656E0,-2.5721914E-1,3.9248595E-1,1.5067536E0,-1.3749733E0,-1.3537372E0,2.696084E0,1.7119669E0,7.4117915E-3,-1.7316376E0,-1.563077E-1,-2.0617738E0,-1.4600047E0,-3.3968356E-2,6.241542E0,-8.8848794E-1,-4.5147376E0,-1.1533525E0,-6.3951116E0,-3.8638747E-1,7.12178E-1,-3.1133916E0,2.3693116E0,-3.6415622E-1,4.8125026E-1,-2.4942553E0,4.741426E0,-5.2364516E-1,-1.6240066E-2,1.7589242E0,-1.5992429E0,1.02096386E-1,-4.804987E-1,2.3046644E0,-1.8111823E0,-6.719237E-1,3.6282808E-2,-1.2440596E0,-2.0610688E0,-4.603931E-1,3.994295E-1,-2.4257274E-2,-1.3445067E0,-1.460891E-1,1.4995228E0,4.9455675E-1,-3.4181604E-1,1.0330453E0,-1.0397475E0,6.3067965E-2,1.7207366E-1,1.7818547E0],"categories":[],"categories_nodes":[],"categories_segments":[],"categories_sizes":[],"default_left":[0,0,0,0,0,0,0,0,0,0,0,0,0,0,0,0,0,0,0,0,0,0,0,0,0,0,0,0,0,0,0,0,0,0,0,0,0,0,0,0,0,0,0,0,0,0,0,0,0,0,0,0,0,0,0,0,0,0,0,0,0,0,0,0,0,0,0,0,0,0,0,0,0],"id":10,"left_children":[1,3,5,7,9,11,13,15,17,19,21,23,25,-1,27,29,31,33,35,37,39,-1,-1,41,43,-1,45,-1,47,49,51,-1,-1,-1,-1,53,-1,55,57,59,-1,61,63,65,67,-1,69,71,-1,-1,-1,-1,-1,-1,-1,-1,-1,-1,-1,-1,-1,-1,-1,-1,-1,-1,-1,-1,-1,-1,-1,-1,-1],"loss_changes":[2.1748532E2,2.9268283E2,9.853294E1,2.694692E2,1.4374847E2,1.1521791E2,1.1034944E2,2.954336E2,1.5721295E2,7.62818E1,2.0908667E1,9.365997E1,1.442585E1,0E0,1.1383325E2,2.0707231E2,2.9202728E1,1.4328827E1,1.8660123E2,7.449815E1,9.647858E0,0E0,0E0,3.08196E2,1.7030846E2,0E0,2.0868921E1,0E0,8.159553E1,6.9298535E2,5.3128503E2,0E0,0E0,0E0,0E0,1.704972E2,0E0,2.4579376E1,7.67939E1,7.9309998E0,0E0,1.2337129E2,8.047348E1,1.2820181E2,1.0428462E2,0E0,1.1238976E1,1.6567024E1,0E0,0E0,0E0,0E0,0E0,0E0,0E0,0E0,0E0,0E0,0E0,0E0,0E0,0E0,0E0,0E0,0E0,0E0,0E0,0E0,0E0,0E0,0E0,0E0,0E0],"parents":[2147483647,0,0,1,1,2,2,3,3,4,4,5,5,6,6,7,7,8,8,9,9,10,10,11,11,12,12,14,14,15,15,16,16,17,17,18,18,19,19,20,20,23,23,24,24,26,26,28,28,29,29,30,30,35,35,37,37,38,38,39,39,41,41,42,42,43,43,44,44,46,46,47,47],"right_children":[2,4,6,8,10,12,14,16,18,20,22,24,26,-1,28,30,32,34,36,38,40,-1,-1,42,44,-1,46,-1,48,50,52,-1,-1,-1,-1,54,-1,56,58,60,-1,62,64,66,68,-1,70,72,-1,-1,-1,-1,-1,-1,-1,-1,-1,-1,-1,-1,-1,-1,-1,-1,-1,-1,-1,-1,-1,-1,-1,-1,-1],"split_conditions":[1.5912918E1,1.6599998E1,3.393902E2,1.3900001E1,1.5542084E1,3.3408484E2,1.6631666E1,1.32E1,1.257426E1,1.2287915E1,1.5282712E2,1.5000002E0,1.42336645E1,-1.1359984E0,1.30447235E1,1.5175418E1,2.3008888E1,6.429583E0,2.3688984E1,1.93E1,1.9652176E1,1.0722656E0,-2.5721914E-1,7.0000005E-1,1.6704155E1,-1.3749733E0,1.5359179E1,2.696084E0,1.8246252E1,1.497125E1,1.6268425E2,-1.563077E-1,-2.0617738E0,-1.4600047E0,-3.3968356E-2,-3.5933335E0,-8.8848794E-1,2.1721159E1,3.0900002E1,3.0880563E2,-3.8638747E-1,2.1284425E2,1.8615E1,1.6550417E1,2.226477E1,4.8125026E-1,1.8709612E1,1.3237039E1,-5.2364516E-1,-1.6240066E-2,1.7589242E0,-1.5992429E0,1.02096386E-1,-4.804987E-1,2.3046644E0,-1.8111823E0,-6.719237E-1,3.6282808E-2,-1.2440596E0,-2.0610688E0,-4.603931E-1,3.994295E-1,-2.4257274E-2,-1.3445067E0,-1.460891E-1,1.4995228E0,4.9455675E-1,-3.4181604E-1,1.0330453E0,-1.0397475E0,6.3067965E-2,1.7207366E-1,1.7818547E0],"split_indices":[0,1,3,1,0,3,0,1,2,0,3,1,2,0,2,0,3,0,2,1,2,0,0,1,2,0,2,0,0,0,3,0,0,0,0,0,0,2,1,3,0,3,0,0,2,0,2,2,0,0,0,0,0,0,0,0,0,0,0,0,0,0,0,0,0,0,0,0,0,0,0,0,0],"split_type":[0,0,0,0,0,0,0,0,0,0,0,0,0,0,0,0,0,0,0,0,0,0,0,0,0,0,0,0,0,0,0,0,0,0,0,0,0,0,0,0,0,0,0,0,0,0,0,0,0,0,0,0,0,0,0,0,0,0,0,0,0,0,0,0,0,0,0,0,0,0,0,0,0],"sum_hessian":[2.449E3,2.056E3,3.93E2,2.015E3,4.1E1,3.83E2,1E1,1.998E3,1.7E1,3.7E1,4E0,3.76E2,7E0,1E0,9E0,1.991E3,7E0,2E0,1.5E1,2.9E1,8E0,3E0,1E0,2.72E2,1.04E2,3E0,4E0,3E0,6E0,1.921E3,7E1,1E0,6E0,1E0,1E0,1.3E1,2E0,1E1,1.9E1,7E0,1E0,2.5E2,2.2E1,7.1E1,3.3E1,1E0,3E0,3E0,3E0,1.902E3,1.9E1,2.5E1,4.5E1,2E0,1.1E1,5E0,5E0,1.4E1,5E0,6E0,1E0,1.4E2,1.1E2,1.4E1,8E0,1.4E1,5.7E1,2.8E1,5E0,2E0,1E0,1E0,2E0],"tree_param":{"num_deleted":"0","num_feature":"4","num_nodes":"73","size_leaf_vector":"1"}},{"base_weights":[1.9822802E-2,8.691569E-2,-8.528813E-1,-2.617718E-1,2.849737E-1,-1.3990672E0,5.405644E-1,2.597146E-1,-9.597925E-1,2.4209497E0,9.770264E-2,2.151517E0,-1.9725666E0,1.8044027E0,-1.8065038E0,9.6313787E-1,-5.265154E-1,-3.7507622E0,-6.111969E-1,1.0435744E1,1.4055849E0,-8.357791E-1,2.5414875E-1,1.979875E-1,3.5559506E0,-3.2840457E0,-1.1014298E0,3.2572922E-1,8.404145E0,-2.921863E0,2.8277197E0,5.3488785E-1,5.3770523E0,5.4850496E-2,-2.0809007E0,-4.362553E0,2.9245944E0,-7.9819906E-1,4.1771245E0,6.592852E0,2.864868E0,-9.0173274E-2,4.9790134E0,-2.7286298E0,2.4824801E-1,2.2014003E0,-2.3728732E-2,2.1689415E0,-2.0440843E0,-3.7097864E0,1.0887283E0,9.114753E-3,-2.7470186E0,-1.2070103E0,3.6956248E0,1.2830684E1,-2.9928842E-1,-1.4647026E0,-1.4590461E0,1.4658709E0,5.128021E-1,4.3335043E-2,1.4527949E0,9.890681E-1,5.235728E0,-1.0328091E0,9.864283E-2,-7.1459234E-1,8.414685E-1,-4.4036463E-1,-1.603182E0,-1.1272534E-1,-6.860765E-1,3.0320659E0,5.941451E-1,1.2634488E0,3.8612798E-2,4.5381936E-1,-8.054624E-1,1.0352113E0,5.4278994E0,-1.6517719E0,-1.8897738E-1,2.8731513E0,-6.8462335E-2,-1.5059432E0,9.646591E-1,-1.57018E0,8.613506E-3,-1.6957049E-1,1.7183914E0,7.3424625E-1,-9.106136E-1,-1.3924193E0,-3.214829E-1,-1.0193748E0,3.6533016E-1,-1.3061221E0,-5.1053506E-1,6.191162E-1,-1.2212021E0,1.3690772E0,-4.8721492E-1,4.6875753E0,6.6704726E-1,-2.5174114E-1,1.1706133E-1,-1.1886379E0,5.1491916E-2,-9.4654085E-3,2.4022637E-1],"categories":[],"categories_nodes":[],"categories_segments":[],"categories_sizes":[],"default_left":[0,0,0,0,0,0,0,0,0,0,0,0,0,0,0,0,0,0,0,0,0,0,0,0,0,0,0,0,0,0,0,0,0,0,0,0,0,0,0,0,0,0,0,0,0,0,0,0,0,0,0,0,0,0,0,0,0,0,0,0,0,0,0,0,0,0,0,0,0,0,0,0,0,0,0,0,0,0,0,0,0,0,0,0,0,0,0,0,0,0,0,0,0,0,0,0,0,0,0,0,0,0,0,0,0,0,0,0,0,0,0],"id":11,"left_children":[1,3,5,7,9,11,13,15,17,19,21,23,25,27,29,31,33,35,37,39,41,43,45,47,-1,49,51,53,55,57,59,61,63,65,67,69,-1,71,73,-1,75,77,79,81,83,85,87,89,91,93,-1,95,97,99,101,103,105,107,-1,-1,109,-1,-1,-1,-1,-1,-1,-1,-1,-1,-1,-1,-1,-1,-1,-1,-1,-1,-1,-1,-1,-1,-1,-1,-1,-1,-1,-1,-1,-1,-1,-1,-1,-1,-1,-1,-1,-1,-1,-1,-1,-1,-1,-1,-1,-1,-1,-1,-1,-1,-1],"loss_changes":[1.4352711E2,1.5725597E2,1.3394534E2,3.005561E2,5.805729E2,2.6081253E2,1.515754E2,2.6210095E2,3.4114825E2,9.3747064E2,1.9532126E2,3.3879755E2,1.2091293E2,3.1930505E2,1.0130104E2,4.696886E2,2.0253543E2,3.6462292E2,2.8539352E2,1.0728665E3,5.616725E2,3.9464246E2,6.196087E2,7.513783E1,0E0,1.4002103E2,1.2246752E2,1.4908548E2,2.3499661E2,3.5315292E1,1.655551E1,3.8445844E2,4.9507245E2,1.5827422E2,9.6411255E1,1.00105774E2,0E0,1.9032869E2,1.3629013E2,0E0,3.2619217E1,3.1599088E2,5.588752E2,4.045396E2,5.488984E2,1.0633657E3,2.741953E2,9.0816795E1,4.304879E1,9.579419E1,0E0,1.7297241E2,3.7934708E1,1.9572615E2,4.8967133E1,8.382739E1,1.4441004E0,4.1546455E1,0E0,0E0,4.9550873E-1,0E0,0E0,0E0,0E0,0E0,0E0,0E0,0E0,0E0,0E0,0E0,0E0,0E0,0E0,0E0,0E0,0E0,0E0,0E0,0E0,0E0,0E0,0E0,0E0,0E0,0E0,0E0,0E0,0E0,0E0,0E0,0E0,0E0,0E0,0E0,0E0,0E0,0E0,0E0,0E0,0E0,0E0,0E0,0E0,0E0,0E0,0E0,0E0,0E0,0E0],"parents":[2147483647,0,0,1,1,2,2,3,3,4,4,5,5,6,6,7,7,8,8,9,9,10,10,11,11,12,12,13,13,14,14,15,15,16,16,17,17,18,18,19,19,20,20,21,21,22,22,23,23,25,25,26,26,27,27,28,28,29,29,30,30,31,31,32,32,33,33,34,34,35,35,37,37,38,38,40,40,41,41,42,42,43,43,44,44,45,45,46,46,47,47,48,48,49,49,51,51,52,52,53,53,54,54,55,55,56,56,57,57,60,60],"right_children":[2,4,6,8,10,12,14,16,18,20,22,24,26,28,30,32,34,36,38,40,42,44,46,48,-1,50,52,54,56,58,60,62,64,66,68,70,-1,72,74,-1,76,78,80,82,84,86,88,90,92,94,-1,96,98,100,102,104,106,108,-1,-1,110,-1,-1,-1,-1,-1,-1,-1,-1,-1,-1,-1,-1,-1,-1,-1,-1,-1,-1,-1,-1,-1,-1,-1,-1,-1,-1,-1,-1,-1,-1,-1,-1,-1,-1,-1,-1,-1,-1,-1,-1,-1,-1,-1,-1,-1,-1,-1,-1,-1,-1],"split_conditions":[2.3933908E1,2.2004166E0,2.8348713E1,1.3719023E1,3.3566663E0,-3.808333E-1,8.419167E0,2.7132852E2,1.42336645E1,1.0022209E2,9.72718E1,-7.3499995E-1,1E-1,4.4795833E0,5.0999994E0,1.3217443E1,-3.2641668E0,1.0200002E1,3.3669073E2,4E-1,2.9420831E0,1.1204583E1,1.3473802E2,-2.8829165E0,3.5559506E0,1.5692082E1,2.1999998E0,3.0880563E2,2E-1,3.0688715E2,1.6385832E1,2.6603113E2,1.660833E0,2.763935E2,1.9483334E0,-4.4558334E0,2.9245944E0,3.3000002E0,1.5496736E1,6.592852E0,2.9420831E0,1.8075441E1,2.0211363E1,1E-1,1.1715001E1,9.3876505E0,1.3580684E2,-3.8162498E0,1E-1,3.118641E2,1.0887283E0,2.7941668E0,2.8742838E2,2.96383E1,3.9420826E0,7.7983327E0,7.7983327E0,2.732535E2,-1.4590461E0,1.4658709E0,1.797125E1,4.3335043E-2,1.4527949E0,9.890681E-1,5.235728E0,-1.0328091E0,9.864283E-2,-7.1459234E-1,8.414685E-1,-4.4036463E-1,-1.603182E0,-1.1272534E-1,-6.860765E-1,3.0320659E0,5.941451E-1,1.2634488E0,3.8612798E-2,4.5381936E-1,-8.054624E-1,1.0352113E0,5.4278994E0,-1.6517719E0,-1.8897738E-1,2.8731513E0,-6.8462335E-2,-1.5059432E0,9.646591E-1,-1.57018E0,8.613506E-3,-1.6957049E-1,1.7183914E0,7.3424625E-1,-9.106136E-1,-1.3924193E0,-3.214829E-1,-1.0193748E0,3.6533016E-1,-1.3061221E0,-5.1053506E-1,6.191162E-1,-1.2212021E0,1.3690772E0,-4.8721492E-1,4.6875753E0,6.6704726E-1,-2.5174114E-1,1.1706133E-1,-1.1886379E0,5.1491916E-2,-9.4654085E-3,2.4022637E-1],"split_indices":[2,0,2,2,0,0,0,3,2,3,3,0,1,0,1,2,0,1,3,1,0,0,3,0,0,0,1,3,1,3,0,3,0,3,0,0,0,1,2,0,0,2,2,1,0,2,3,0,1,3,0,0,3,2,0,0,0,3,0,0,0,0,0,0,0,0,0,0,0,0,0,0,0,0,0,0,0,0,0,0,0,0,0,0,0,0,0,0,0,0,0,0,0,0,0,0,0,0,0,0,0,0,0,0,0,0,0,0,0,0,0],"split_type":[0,0,0,0,0,0,0,0,0,0,0,0,0,0,0,0,0,0,0,0,0,0,0,0,0,0,0,0,0,0,0,0,0,0,0,0,0,0,0,0,0,0,0,0,0,0,0,0,0,0,0,0,0,0,0,0,0,0,0,0,0,0,0,0,0,0,0,0,0,0,0,0,0,0,0,0,0,0,0,0,0,0,0,0,0,0,0,0,0,0,0,0,0,0,0,0,0,0,0,0,0,0,0,0,0,0,0,0,0,0,0],"sum_hessian":[2.449E3,2.275E3,1.74E2,8.24E2,1.451E3,1.25E2,4.9E1,4.72E2,3.52E2,1.16E2,1.335E3,1.7E1,1.08E2,3.2E1,1.7E1,2.49E2,2.23E2,3.8E1,3.14E2,1.2E1,1.04E2,1.91E2,1.144E3,1.5E1,2E0,4.2E1,6.6E1,2.7E1,5E0,1.4E1,3E0,2.28E2,2.1E1,1.63E2,6E1,3.7E1,1E0,3.03E2,1.1E1,4E0,8E0,7.4E1,3E1,6.9E1,1.22E2,1.42E2,1.002E3,8E0,7E0,4E1,2E0,4E1,2.6E1,1.9E1,8E0,3E0,2E0,9E0,5E0,1E0,2E0,2.1E2,1.8E1,1.9E1,2E0,1.1E1,1.52E2,5.7E1,3E0,1E1,2.7E1,2.37E2,6.6E1,2E0,9E0,5E0,3E0,4.6E1,2.8E1,2.8E1,2E0,2.9E1,4E1,5E0,1.17E2,1.7E1,1.25E2,9E0,9.93E2,5E0,3E0,1E0,6E0,2.9E1,1.1E1,1E1,3E1,9E0,1.7E1,9E0,1E1,7E0,1E0,2E0,1E0,1E0,1E0,3E0,6E0,1E0,1E0],"tree_param":{"num_deleted":"0","num_feature":"4","num_nodes":"111","size_leaf_vector":"1"}},{"base_weights":[2.6089119E-2,-7.5623214E-1,1.0015166E-1,3.2041438E0,-1.1179272E0,3.020906E-1,-1.476543E-1,4.659295E0,-1.5111084E0,-1.6118996E0,7.7679604E-1,6.492731E-1,-6.315404E-1,-1.0264761E0,2.9066858E-1,2.147708E0,7.6501265E0,-1.3168755E0,3.0590677E-1,-9.857083E-1,-3.9880195E0,2.6930802E0,-3.165765E-1,3.6883368E0,5.582275E-1,6.1630493E-1,-1.2694811E0,-2.2118807E0,3.6439303E-1,2.5118144E0,1.4985262E-1,1.3718644E0,-7.070068E-1,2.5550873E0,2.8676624E0,1.4900426E0,-2.9033298E0,-1.2789283E0,4.097958E0,-5.0175576E0,-2.7221012E-1,-6.20535E-1,3.584735E0,5.1045413E0,-9.5444757E-1,1.1601161E1,1.722316E0,4.62841E-1,3.3249214E0,-1.4499366E0,2.500088E0,-1.5506955E0,2.4480734E0,-4.567353E0,-1.4448326E0,1.7772793E0,-1.3766443E0,5.297126E0,-1.1867396E0,-1.8289604E0,3.1168398E-1,-5.978201E-1,2.4431668E-1,6.6664696E-2,1.0831246E0,-1.9917442E-1,-1.1073241E0,-1.08690865E-1,-7.0757693E-1,-1.4818202E-1,4.747402E0,-2.0265326E0,-1.0226549E0,1.6841174E0,-5.745056E-1,1.2289144E0,-3.8325265E-1,2.1235685E0,1.7347498E-1,9.9422234E-1,-4.409141E-1,4.0835705E0,5.3373075E-1,-5.8366407E-2,3.1190622E0,2.6685566E-1,-4.6359625E-2,3.4329195E0,4.7048882E-1,-2.5985718E-1,-2.1342478E0,3.6162096E-1,2.273513E0,-2.8734297E-1,-8.325797E-1,1.907894E0,2.7580783E-2,-3.5092103E-1,-2.2049882E0,-1.2961127E0,-2.932494E-1,-1.3974609E0,6.954504E-1,-1.6027546E0,-1.3920207E-1,-2.912926E-1,2.269954E0,-2.230293E0,1.6751851E-1,-1.6060133E-1,-2.007358E0,7.018542E-2,8.699031E-1],"categories":[],"categories_nodes":[],"categories_segments":[],"categories_sizes":[],"default_left":[0,0,0,0,0,0,0,0,0,0,0,0,0,0,0,0,0,0,0,0,0,0,0,0,0,0,0,0,0,0,0,0,0,0,0,0,0,0,0,0,0,0,0,0,0,0,0,0,0,0,0,0,0,0,0,0,0,0,0,0,0,0,0,0,0,0,0,0,0,0,0,0,0,0,0,0,0,0,0,0,0,0,0,0,0,0,0,0,0,0,0,0,0,0,0,0,0,0,0,0,0,0,0,0,0,0,0,0,0,0,0,0,0],"id":12,"left_children":[1,3,5,7,9,11,13,15,17,19,21,23,25,27,29,31,33,-1,35,37,39,41,43,45,47,49,51,53,55,57,59,-1,61,63,-1,-1,65,67,69,71,73,-1,75,77,79,81,83,85,87,89,91,93,95,97,99,101,103,105,107,109,111,-1,-1,-1,-1,-1,-1,-1,-1,-1,-1,-1,-1,-1,-1,-1,-1,-1,-1,-1,-1,-1,-1,-1,-1,-1,-1,-1,-1,-1,-1,-1,-1,-1,-1,-1,-1,-1,-1,-1,-1,-1,-1,-1,-1,-1,-1,-1,-1,-1,-1,-1,-1],"loss_changes":[1.4203046E2,3.0726105E2,1.12087906E2,1.3054602E2,1.8376064E2,4.0039923E2,3.8781732E2,8.873401E1,2.7493977E1,2.2669434E2,8.675627E1,2.4696521E2,2.674596E2,5.5313477E2,2.098069E2,6.554166E1,3.3927124E1,0E0,7.425203E1,1.900794E2,1.2105231E2,7.109945E1,9.823732E1,3.8449533E2,2.2937814E2,4.4735294E2,2.3588162E2,3.2042468E2,3.8372925E2,4.1835132E2,2.0327818E2,0E0,1.14033575E1,6.583544E0,0E0,0E0,2.8417377E0,1.1592357E2,3.847516E2,4.685315E1,8.8106094E1,0E0,3.7573868E1,2.27118E1,5.9856346E1,7.4531006E1,3.6783887E2,2.2325372E2,3.9560947E2,1.7569348E2,3.8535193E2,1.4763004E2,1.4687457E2,4.073888E2,1.8122687E2,3.1015414E2,2.5087917E2,3.3451605E2,2.004026E2,2.983329E2,1.1720799E2,0E0,0E0,0E0,0E0,0E0,0E0,0E0,0E0,0E0,0E0,0E0,0E0,0E0,0E0,0E0,0E0,0E0,0E0,0E0,0E0,0E0,0E0,0E0,0E0,0E0,0E0,0E0,0E0,0E0,0E0,0E0,0E0,0E0,0E0,0E0,0E0,0E0,0E0,0E0,0E0,0E0,0E0,0E0,0E0,0E0,0E0,0E0,0E0,0E0,0E0,0E0,0E0],"parents":[2147483647,0,0,1,1,2,2,3,3,4,4,5,5,6,6,7,7,8,8,9,9,10,10,11,11,12,12,13,13,14,14,15,15,16,16,18,18,19,19,20,20,21,21,22,22,23,23,24,24,25,25,26,26,27,27,28,28,29,29,30,30,32,32,33,33,36,36,37,37,38,38,39,39,40,40,42,42,43,43,44,44,45,45,46,46,47,47,48,48,49,49,50,50,51,51,52,52,53,53,54,54,55,55,56,56,57,57,58,58,59,59,60,60],"right_children":[2,4,6,8,10,12,14,16,18,20,22,24,26,28,30,32,34,-1,36,38,40,42,44,46,48,50,52,54,56,58,60,-1,62,64,-1,-1,66,68,70,72,74,-1,76,78,80,82,84,86,88,90,92,94,96,98,100,102,104,106,108,110,112,-1,-1,-1,-1,-1,-1,-1,-1,-1,-1,-1,-1,-1,-1,-1,-1,-1,-1,-1,-1,-1,-1,-1,-1,-1,-1,-1,-1,-1,-1,-1,-1,-1,-1,-1,-1,-1,-1,-1,-1,-1,-1,-1,-1,-1,-1,-1,-1,-1,-1,-1,-1],"split_conditions":[-6.4370837E0,8.373386E0,8.512917E0,-9.220417E0,3.1668082E2,1.6000001E0,1.2946251E1,-1.1826665E1,-8.582917E0,3.0215347E2,-1.0860001E1,2.047239E1,1.15159325E2,8E-1,1.342125E1,-1.2993333E1,1E-1,-1.3168755E0,5E-1,3.004322E2,2E-1,3.1997308E2,3.184845E2,-4.8725004E0,8.089999E0,6.1803158E1,2.5952478E1,1.8051305E2,1.1715001E1,1.5496736E1,1.3856666E1,1.3718644E0,-1.2253751E1,8.049845E0,2.8676624E0,1.4900426E0,-7.224582E0,-8.787084E0,-8.049584E0,1.3281023E1,3E-1,-6.20535E-1,1.5E0,-9.220417E0,9.504273E0,1.7382467E1,5.0733333E0,1.5815435E1,9.585739E0,5.7163864E1,3.8691664E0,5.0999994E0,2.8196506E2,1.1317372E2,1.08955765E1,5.384827E1,1.0022209E2,1.0182337E1,1.608761E1,1.3802501E1,3.3757578E2,-5.978201E-1,2.4431668E-1,6.6664696E-2,1.0831246E0,-1.9917442E-1,-1.1073241E0,-1.08690865E-1,-7.0757693E-1,-1.4818202E-1,4.747402E0,-2.0265326E0,-1.0226549E0,1.6841174E0,-5.745056E-1,1.2289144E0,-3.8325265E-1,2.1235685E0,1.7347498E-1,9.9422234E-1,-4.409141E-1,4.0835705E0,5.3373075E-1,-5.8366407E-2,3.1190622E0,2.6685566E-1,-4.6359625E-2,3.4329195E0,4.7048882E-1,-2.5985718E-1,-2.1342478E0,3.6162096E-1,2.273513E0,-2.8734297E-1,-8.325797E-1,1.907894E0,2.7580783E-2,-3.5092103E-1,-2.2049882E0,-1.2961127E0,-2.932494E-1,-1.3974609E0,6.954504E-1,-1.6027546E0,-1.3920207E-1,-2.912926E-1,2.269954E0,-2.230293E0,1.6751851E-1,-1.6060133E-1,-2.007358E0,7.018542E-2,8.699031E-1],"split_indices":[0,2,0,0,3,1,0,0,0,3,0,3,3,1,0,0,1,0,1,3,1,3,3,0,0,3,2,3,0,2,0,0,0,2,0,0,0,0,0,2,1,0,1,0,2,3,0,2,2,3,0,1,3,3,2,3,3,2,2,0,3,0,0,0,0,0,0,0,0,0,0,0,0,0,0,0,0,0,0,0,0,0,0,0,0,0,0,0,0,0,0,0,0,0,0,0,0,0,0,0,0,0,0,0,0,0,0,0,0,0,0,0,0],"split_type":[0,0,0,0,0,0,0,0,0,0,0,0,0,0,0,0,0,0,0,0,0,0,0,0,0,0,0,0,0,0,0,0,0,0,0,0,0,0,0,0,0,0,0,0,0,0,0,0,0,0,0,0,0,0,0,0,0,0,0,0,0,0,0,0,0,0,0,0,0,0,0,0,0,0,0,0,0,0,0,0,0,0,0,0,0,0,0,0,0,0,0,0,0,0,0,0,0,0,0,0,0,0,0,0,0,0,0,0,0,0,0,0,0],"sum_hessian":[2.449E3,2.11E2,2.238E3,1.7E1,1.94E2,1.233E3,1.005E3,1.3E1,4E0,1.54E2,4E1,8.99E2,3.34E2,3.34E2,6.71E2,8E0,5E0,1E0,3E0,1.23E2,3.1E1,1.4E1,2.6E1,2.5E1,8.74E2,1.13E2,2.21E2,1.8E2,1.54E2,3.9E1,6.32E2,4E0,4E0,2E0,3E0,1E0,2E0,1.17E2,6E0,2.4E1,7E0,2E0,1.2E1,2E0,2.4E1,4E0,2.1E1,8.46E2,2.8E1,5.4E1,5.9E1,2.06E2,1.5E1,4.3E1,1.37E2,8.5E1,6.9E1,2.2E1,1.7E1,4.7E1,5.85E2,2E0,2E0,1E0,1E0,1E0,1E0,6.4E1,5.3E1,5E0,1E0,1E1,1.4E1,1E0,6E0,1.1E1,1E0,1E0,1E0,2E0,2.2E1,3E0,1E0,1.8E1,3E0,5E2,3.46E2,4E0,2.4E1,5E1,4E0,4.8E1,1.1E1,1.4E2,6.6E1,5E0,1E1,2E1,2.3E1,1.8E1,1.19E2,6E0,7.9E1,1.2E1,5.7E1,6E0,1.6E1,3E0,1.4E1,3.8E1,9E0,5.69E2,1.6E1],"tree_param":{"num_deleted":"0","num_feature":"4","num_nodes":"113","size_leaf_vector":"1"}},{"base_weights":[2.3886342E-2,3.1306624E-1,-1.0758884E-1,1.4623788E-1,2.7512233E0,1.2614182E-1,-3.9914125E-1,8.0443546E-2,3.4490068E0,6.071258E0,9.575319E-1,8.0818556E-2,6.129639E0,-4.8035976E-1,1.1789442E0,1.2940285E-1,-4.201311E0,-2.6086745E-1,8.438984E0,1.7356506E1,-5.8885746E0,-2.4891913E0,4.77525E0,1.8672408E-1,-1.355133E0,8.520166E0,-1.2320287E0,-5.339741E-1,2.238499E0,-1.6654083E0,2.0210211E0,-9.817075E-2,1.0133295E0,-8.113404E0,1.7391326E0,-2.2110302E0,1.082719E0,1.045224E1,-2.4409463E-1,8.988039E-1,2.1031504E1,-1.0150477E1,-2.0658772E0,5.875279E0,-3.9019551E0,4.69412E0,3.0073245E0,3.6299575E-2,1.5523664E0,3.565898E-1,-2.4615347E0,3.8194733E0,3.5843108E0,-4.1852462E-1,-1.7603842E0,-4.770973E-1,5.93881E0,-1.7768942E-1,-1.3744848E0,2.9377933E0,1.3937258E0,2.6898976E-2,-1.1344941E0,8.842247E-1,-2.0482102E-1,-2.6966152E0,-6.918228E-1,1.7654516E-2,1.0169978E0,-1.3391319E-1,-7.951367E-1,3.9720836E-1,-1.8573761E-2,4.1213074E0,1.1048129E0,1.7462349E0,6.7789483E0,-3.6448555E0,-6.2300324E-1,-8.9003015E-1,3.657858E-1,-1.1725483E0,3.816424E0,-1.6591843E0,-3.0536297E-1,1.3684118E0,-3.0391368E-1,-5.3162508E-2,2.7890456E-1,2.5755167E0,5.4709878E-2,-1.8821697E-1,2.4328692E0,-1.4932536E0,-3.4769112E-1,-8.031252E-1,2.0632062E0,-1.4525181E-1,9.205038E-1,-1.0718919E0,-8.075987E-2,7.6156074E-1,-7.2240096E-1,2.6168633E0,7.413521E-2,-4.875296E-1,2.1788819E-1,-5.2199876E-1,7.56347E-1],"categories":[],"categories_nodes":[],"categories_segments":[],"categories_sizes":[],"default_left":[0,0,0,0,0,0,0,0,0,0,0,0,0,0,0,0,0,0,0,0,0,0,0,0,0,0,0,0,0,0,0,0,0,0,0,0,0,0,0,0,0,0,0,0,0,0,0,0,0,0,0,0,0,0,0,0,0,0,0,0,0,0,0,0,0,0,0,0,0,0,0,0,0,0,0,0,0,0,0,0,0,0,0,0,0,0,0,0,0,0,0,0,0,0,0,0,0,0,0,0,0,0,0,0,0,0,0,0,0],"id":13,"left_children":[1,3,5,7,9,11,13,15,17,19,21,23,25,27,29,31,33,35,37,39,41,43,45,47,49,51,-1,53,55,57,59,61,63,65,67,69,71,73,-1,-1,75,77,79,81,83,-1,85,87,89,91,93,95,-1,97,99,101,103,105,-1,-1,107,-1,-1,-1,-1,-1,-1,-1,-1,-1,-1,-1,-1,-1,-1,-1,-1,-1,-1,-1,-1,-1,-1,-1,-1,-1,-1,-1,-1,-1,-1,-1,-1,-1,-1,-1,-1,-1,-1,-1,-1,-1,-1,-1,-1,-1,-1,-1,-1],"loss_changes":[9.318263E1,3.1117105E2,1.14874214E2,1.5574644E2,2.859873E2,2.5418839E2,9.669365E1,1.4833403E2,2.6137207E2,2.39669E3,4.4612088E2,1.4168298E2,2.0628308E2,1.05274994E2,9.198686E1,1.4050803E2,2.0002684E2,2.5975834E1,1.2027194E2,4.1196216E2,1.2565802E2,2.3563144E2,2.6047318E2,1.7804807E2,1.22084335E2,5.1036865E1,0E0,9.851671E1,1.4351309E2,3.8232372E1,1.2772968E2,3.8502548E2,4.7110065E2,4.6874695E0,1.089616E1,1.9186306E0,1.7392325E0,6.0612915E1,0E0,0E0,3.5102783E1,3.9328827E1,2.137476E1,2.5066461E2,6.9525406E1,0E0,9.833859E1,1.493267E2,8.2702576E2,2.0343587E2,1.2204283E2,9.787404E1,0E0,1.4844342E2,1.6121239E2,5.8518925E1,9.292076E1,1.0339335E1,0E0,0E0,1.033123E2,0E0,0E0,0E0,0E0,0E0,0E0,0E0,0E0,0E0,0E0,0E0,0E0,0E0,0E0,0E0,0E0,0E0,0E0,0E0,0E0,0E0,0E0,0E0,0E0,0E0,0E0,0E0,0E0,0E0,0E0,0E0,0E0,0E0,0E0,0E0,0E0,0E0,0E0,0E0,0E0,0E0,0E0,0E0,0E0,0E0,0E0,0E0,0E0],"parents":[2147483647,0,0,1,1,2,2,3,3,4,4,5,5,6,6,7,7,8,8,9,9,10,10,11,11,12,12,13,13,14,14,15,15,16,16,17,17,18,18,19,19,20,20,21,21,22,22,23,23,24,24,25,25,27,27,28,28,29,29,30,30,31,31,32,32,33,33,34,34,35,35,36,36,37,37,40,40,41,41,42,42,43,43,44,44,46,46,47,47,48,48,49,49,50,50,51,51,53,53,54,54,55,55,56,56,57,57,60,60],"right_children":[2,4,6,8,10,12,14,16,18,20,22,24,26,28,30,32,34,36,38,40,42,44,46,48,50,52,-1,54,56,58,60,62,64,66,68,70,72,74,-1,-1,76,78,80,82,84,-1,86,88,90,92,94,96,-1,98,100,102,104,106,-1,-1,108,-1,-1,-1,-1,-1,-1,-1,-1,-1,-1,-1,-1,-1,-1,-1,-1,-1,-1,-1,-1,-1,-1,-1,-1,-1,-1,-1,-1,-1,-1,-1,-1,-1,-1,-1,-1,-1,-1,-1,-1,-1,-1,-1,-1,-1,-1,-1,-1],"split_conditions":[1.7764905E2,1.6268425E2,2E-1,2.3226276E1,5.6399994E0,3.0718885E1,1.8121248E1,2.1900904E1,1.2657314E2,1.7205908E2,1.4517085E1,2.4344624E1,8.0025E0,3.554413E2,2.2068108E2,1.6179987E1,7.0999985E0,-1.7850002E0,1.4929114E2,-1.3766665E0,5E-1,9.12513E0,1.5487918E1,2.03774E1,4.3170834E0,1E-1,-1.2320287E0,3.3408484E2,-7.829166E-1,2.3000002E0,2.2147241E2,1.55843E1,5E0,1.5369164E1,1.2287915E1,2.5516865E1,1.1521249E1,1.59E1,-2.4409463E-1,8.988039E-1,1E-1,2.85875E0,2.12125E0,6.429583E0,2.9E0,4.69412E0,1.8504139E1,1.3856666E1,2.7992343E2,4.112917E0,6.773334E0,2.48375E0,3.5843108E0,3.301932E2,1.9000003E0,-5.4933324E0,1.8000898E1,4E-1,-1.3744848E0,2.9377933E0,2.583508E2,2.6898976E-2,-1.1344941E0,8.842247E-1,-2.0482102E-1,-2.6966152E0,-6.918228E-1,1.7654516E-2,1.0169978E0,-1.3391319E-1,-7.951367E-1,3.9720836E-1,-1.8573761E-2,4.1213074E0,1.1048129E0,1.7462349E0,6.7789483E0,-3.6448555E0,-6.2300324E-1,-8.9003015E-1,3.657858E-1,-1.1725483E0,3.816424E0,-1.6591843E0,-3.0536297E-1,1.3684118E0,-3.0391368E-1,-5.3162508E-2,2.7890456E-1,2.5755167E0,5.4709878E-2,-1.8821697E-1,2.4328692E0,-1.4932536E0,-3.4769112E-1,-8.031252E-1,2.0632062E0,-1.4525181E-1,9.205038E-1,-1.0718919E0,-8.075987E-2,7.6156074E-1,-7.2240096E-1,2.6168633E0,7.413521E-2,-4.875296E-1,2.1788819E-1,-5.2199876E-1,7.56347E-1],"split_indices":[3,3,1,2,0,2,0,2,3,3,0,2,0,3,3,2,1,0,3,0,1,2,0,2,0,1,0,3,0,1,3,2,1,0,0,2,0,1,0,0,1,0,0,0,1,0,2,0,3,0,0,0,0,3,1,0,2,1,0,0,3,0,0,0,0,0,0,0,0,0,0,0,0,0,0,0,0,0,0,0,0,0,0,0,0,0,0,0,0,0,0,0,0,0,0,0,0,0,0,0,0,0,0,0,0,0,0,0,0],"split_type":[0,0,0,0,0,0,0,0,0,0,0,0,0,0,0,0,0,0,0,0,0,0,0,0,0,0,0,0,0,0,0,0,0,0,0,0,0,0,0,0,0,0,0,0,0,0,0,0,0,0,0,0,0,0,0,0,0,0,0,0,0,0,0,0,0,0,0,0,0,0,0,0,0,0,0,0,0,0,0,0,0,0,0,0,0,0,0,0,0,0,0,0,0,0,0,0,0,0,0,0,0,0,0,0,0,0,0,0,0],"sum_hessian":[2.449E3,7.65E2,1.684E3,7.17E2,4.8E1,9.35E2,7.49E2,7.04E2,1.3E1,1.6E1,3.2E1,9.29E2,6E0,7.13E2,3.6E1,6.97E2,7E0,8E0,5E0,8E0,8E0,1.7E1,1.5E1,8.66E2,6.3E1,5E0,1E0,7E2,1.3E1,8E0,2.8E1,5.55E2,1.42E2,4E0,3E0,3E0,5E0,4E0,1E0,2E0,6E0,3E0,5E0,2E0,1.5E1,1E0,1.4E1,7.81E2,8.5E1,2.5E1,3.8E1,3E0,2E0,6.41E2,5.9E1,8E0,5E0,6E0,2E0,1E0,2.7E1,5.29E2,2.6E1,6.6E1,7.6E1,3E0,1E0,2E0,1E0,1E0,2E0,4E0,1E0,2E0,2E0,1E0,5E0,2E0,1E0,4E0,1E0,1E0,1E0,9E0,6E0,1E1,4E0,6.31E2,1.5E2,1.3E1,7.2E1,2.3E1,2E0,1.2E1,2.6E1,1E0,2E0,6.3E2,1.1E1,2.6E1,3.3E1,3E0,5E0,3E0,2E0,2E0,4E0,7E0,2E1],"tree_param":{"num_deleted":"0","num_feature":"4","num_nodes":"109","size_leaf_vector":"1"}},{"base_weights":[2.6300974E-2,1.3068306E0,-4.7466736E-3,9.903622E-1,2.9018292E0,-4.8526726E0,1.5590577E-2,5.640722E0,5.32963E-1,-6.944788E0,2.1697521E-2,-6.7841536E-1,7.121714E-2,2.251274E0,2.1449788E0,2.3605433E0,-3.9563167E-1,-2.614282E0,-5.0421566E-1,4.7330132E-1,-6.969335E-1,-2.2196762E-2,-2.0595388E0,-1.3587785E0,1.1247867E-1,8.357392E-1,1.7733422E-1,5.0171466E0,-1.1366565E0,-4.692388E0,1.3717611E-1,1.6178817E0,-7.358521E-1,-2.8397932E0,2.4173508E0,-3.9995334E0,1.9362509E-1,2.5024333E0,6.4762354E-2,1.7167756E-1,2.62359E0,-4.1400662E-1,-1.6009508E0,2.0915148E0,-1.5859678E-1,-1.0904555E0,8.255379E-1,-5.7428485E-1,4.817244E-1,-1.453046E0,-4.560351E-1,2.7862265E0,1.192993E-1,-1.6252983E0,2.7643138E-1,9.8836195E-1,-4.2642838E-1,2.2413414E0,2.7628022E-1,-1.2927048E0,2.6305635E-2],"categories":[],"categories_nodes":[],"categories_segments":[],"categories_sizes":[],"default_left":[0,0,0,0,0,0,0,0,0,0,0,0,0,0,0,0,0,0,0,0,0,0,0,0,0,0,0,0,0,0,0,0,0,0,0,0,0,0,0,0,0,0,0,0,0,0,0,0,0,0,0,0,0,0,0,0,0,0,0,0,0],"id":14,"left_children":[1,3,5,7,-1,9,11,13,15,17,19,21,23,25,-1,27,29,-1,-1,-1,-1,31,33,35,37,-1,-1,39,-1,41,43,45,47,49,51,53,55,57,59,-1,-1,-1,-1,-1,-1,-1,-1,-1,-1,-1,-1,-1,-1,-1,-1,-1,-1,-1,-1,-1,-1],"loss_changes":[9.741191E1,1.4397855E2,2.3600989E2,1.18236755E2,0E0,1.0212813E2,9.208304E1,9.4804535E0,9.087921E1,5.055658E1,1.825895E1,1.6037273E2,1.3043324E2,1.0154581E0,0E0,3.130665E2,8.306011E1,0E0,0E0,0E0,0E0,1.4281505E2,2.0597221E2,2.5494449E2,2.4468147E2,0E0,0E0,2.1042133E2,0E0,1.1696854E0,1.5385725E2,2.3037929E2,2.3762398E2,1.2220441E2,1.2118522E2,1.6549905E2,2.0500859E2,3.2315564E2,2.1152646E2,0E0,0E0,0E0,0E0,0E0,0E0,0E0,0E0,0E0,0E0,0E0,0E0,0E0,0E0,0E0,0E0,0E0,0E0,0E0,0E0,0E0,0E0],"parents":[2147483647,0,0,1,1,2,2,3,3,5,5,6,6,7,7,8,8,9,9,10,10,11,11,12,12,13,13,15,15,16,16,21,21,22,22,23,23,24,24,27,27,29,29,30,30,31,31,32,32,33,33,34,34,35,35,36,36,37,37,38,38],"right_children":[2,4,6,8,-1,10,12,14,16,18,20,22,24,26,-1,28,30,-1,-1,-1,-1,32,34,36,38,-1,-1,40,-1,42,44,46,48,50,52,54,56,58,60,-1,-1,-1,-1,-1,-1,-1,-1,-1,-1,-1,-1,-1,-1,-1,-1,-1,-1,-1,-1,-1,-1],"split_conditions":[7.5942073E0,1.8354586E1,7.69592E0,-9.220417E0,2.9018292E0,1.1204583E1,-7.224582E0,-1.1826665E1,1.2298853E2,1.6108438E2,1.3E0,-8.787084E0,8.78872E0,-1.4028751E1,2.1449788E0,1E0,1.5453671E2,-2.614282E0,-5.0421566E-1,4.7330132E-1,-6.969335E-1,2.8486118E2,8E-1,2E-1,9.227524E0,8.357392E-1,1.7733422E-1,7.947679E1,-1.1366565E0,1.4879166E0,1.563998E2,8.7531975E1,3.1668082E2,1.1043261E1,-8.2579155E0,2.7853067E2,9.72718E1,5.2750003E-1,9.339208E0,1.7167756E-1,2.62359E0,-4.1400662E-1,-1.6009508E0,2.0915148E0,-1.5859678E-1,-1.0904555E0,8.255379E-1,-5.7428485E-1,4.817244E-1,-1.453046E0,-4.560351E-1,2.7862265E0,1.192993E-1,-1.6252983E0,2.7643138E-1,9.8836195E-1,-4.2642838E-1,2.2413414E0,2.7628022E-1,-1.2927048E0,2.6305635E-2],"split_indices":[2,0,2,0,0,0,0,0,3,3,1,0,2,0,0,1,3,0,0,0,0,3,1,1,2,0,0,3,0,0,3,3,3,2,0,3,3,0,2,0,0,0,0,0,0,0,0,0,0,0,0,0,0,0,0,0,0,0,0,0,0],"split_type":[0,0,0,0,0,0,0,0,0,0,0,0,0,0,0,0,0,0,0,0,0,0,0,0,0,0,0,0,0,0,0,0,0,0,0,0,0,0,0,0,0,0,0,0,0,0,0,0,0,0,0,0,0,0,0,0,0,0,0,0,0],"sum_hessian":[2.449E3,5.7E1,2.392E3,5.6E1,1E0,9E0,2.383E3,4E0,5.2E1,6E0,3E0,1.76E2,2.207E3,2E0,2E0,1.7E1,3.5E1,4E0,2E0,2E0,1E0,1.2E2,5.6E1,6.1E1,2.146E3,1E0,1E0,1.2E1,5E0,3E0,3.2E1,3.6E1,8.4E1,4.8E1,8E0,2.2E1,3.9E1,4.1E1,2.105E3,6E0,6E0,1E0,2E0,2E0,3E1,6E0,3E1,5.6E1,2.8E1,1.8E1,3E1,1E0,7E0,1.7E1,5E0,1.3E1,2.6E1,9E0,3.2E1,1E1,2.095E3],"tree_param":{"num_deleted":"0","num_feature":"4","num_nodes":"61","size_leaf_vector":"1"}},{"base_weights":[2.0613637E-2,4.6801355E-2,-1.1879431E0,3.1599972E-2,3.067976E0,-2.3419561E0,1.814753E0,1.8761691E-1,-1.6840607E-1,6.0045166E0,8.491411E-1,-1.6296848E0,-4.4559765E0,1.1801219E-1,3.2846498E0,4.6285808E-2,1.4508789E0,-2.2613317E-1,2.5314305E0,-5.479495E-1,3.1666434E0,-8.226172E-1,2.5032167E0,-1.2926406E0,-1.17242E0,-5.0221605E0,-4.9486646E-1,1.2122399E0,-1.2792754E0,-2.384368E-1,1.1942905E0,1.001117E-1,-3.155978E0,4.027234E0,7.3905474E-1,-1.5267022E-1,-3.161483E0,1.4830769E0,2.602993E0,9.571796E-2,-3.4229523E-1,5.2996445E-2,8.799595E-1,-1.8258725E0,6.07764E-1,-1.6293191E0,-3.85312E-1,-1.794611E-1,1.8144016E0,-6.8260694E-1,-5.6638908E-2,1.2573251E-1,-9.762403E-2,-1.9725577E0,7.179168E-2,-2.529273E-1,3.0259001E0,-1.771725E0,3.5768053E-1,-6.3737756E-1,-2.3094924E-2,-1.289336E0,-4.717017E-1,1.0615869E-1,1.4399847E0,-1.5935396E-1,-1.4274877E0,3.9025012E-1,-2.9428902E-1,6.611748E-1,9.687882E-2],"categories":[],"categories_nodes":[],"categories_segments":[],"categories_sizes":[],"default_left":[0,0,0,0,0,0,0,0,0,0,0,0,0,0,0,0,0,0,0,0,0,0,0,0,0,0,0,0,0,0,0,0,0,0,0,0,0,0,0,0,0,0,0,0,0,0,0,0,0,0,0,0,0,0,0,0,0,0,0,0,0,0,0,0,0,0,0,0,0,0,0],"id":15,"left_children":[1,3,5,7,9,11,13,15,17,19,21,23,25,27,29,31,33,35,37,39,-1,-1,41,-1,43,45,-1,47,49,-1,-1,51,53,55,57,59,61,63,-1,-1,-1,-1,-1,65,67,-1,-1,-1,69,-1,-1,-1,-1,-1,-1,-1,-1,-1,-1,-1,-1,-1,-1,-1,-1,-1,-1,-1,-1,-1,-1],"loss_changes":[7.759649E1,1.1007958E2,1.8443791E2,7.454754E1,7.30897E1,4.995691E1,3.7022877E1,2.3953108E2,1.6375127E2,1.5488397E2,5.4384872E1,3.1700256E1,6.0162354E0,1.3782394E1,2.5888748E1,2.0853252E2,2.4460175E2,2.2076343E2,1.288637E2,1.9065418E0,0E0,0E0,5.484104E0,0E0,3.2517883E1,3.7232208E0,0E0,6.536281E0,3.9152427E0,0E0,0E0,1.6153253E2,2.3375749E2,8.6428735E2,3.2927344E2,1.4938402E2,3.8386154E1,7.321068E1,0E0,0E0,0E0,0E0,0E0,7.340414E1,1.0084862E1,0E0,0E0,0E0,1.6120901E0,0E0,0E0,0E0,0E0,0E0,0E0,0E0,0E0,0E0,0E0,0E0,0E0,0E0,0E0,0E0,0E0,0E0,0E0,0E0,0E0,0E0,0E0],"parents":[2147483647,0,0,1,1,2,2,3,3,4,4,5,5,6,6,7,7,8,8,9,9,10,10,11,11,12,12,13,13,14,14,15,15,16,16,17,17,18,18,19,19,22,22,24,24,25,25,27,27,28,28,31,31,32,32,33,33,34,34,35,35,36,36,37,37,43,43,44,44,48,48],"right_children":[2,4,6,8,10,12,14,16,18,20,22,24,26,28,30,32,34,36,38,40,-1,-1,42,-1,44,46,-1,48,50,-1,-1,52,54,56,58,60,62,64,-1,-1,-1,-1,-1,66,68,-1,-1,-1,70,-1,-1,-1,-1,-1,-1,-1,-1,-1,-1,-1,-1,-1,-1,-1,-1,-1,-1,-1,-1,-1,-1],"split_conditions":[1.6599998E1,1.5E1,1.5542084E1,7.387918E0,1.1083749E1,1.2287915E1,1.0843506E2,5.4524994E0,3.393902E2,-3.5933335E0,1.9916553E2,1.7400002E1,1.8626305E1,6.9075424E1,1.8099998E1,5.248333E0,1.4437347E2,3.3227448E2,1.7418196E1,-4.11625E0,3.1666434E0,-8.226172E-1,1.2287915E1,-1.2926406E0,2.1721159E1,3.0880563E2,-4.9486646E-1,5.285328E0,1.8899143E1,-2.384368E-1,1.1942905E0,4E-1,1E-1,9.190209E1,9.19939E0,8.0025E0,1.3967083E1,1.9000003E0,2.602993E0,9.571796E-2,-3.4229523E-1,5.2996445E-2,8.799595E-1,1.0271113E2,2.5299997E1,-1.6293191E0,-3.85312E-1,-1.794611E-1,1.8246252E1,-6.8260694E-1,-5.6638908E-2,1.2573251E-1,-9.762403E-2,-1.9725577E0,7.179168E-2,-2.529273E-1,3.0259001E0,-1.771725E0,3.5768053E-1,-6.3737756E-1,-2.3094924E-2,-1.289336E0,-4.717017E-1,1.0615869E-1,1.4399847E0,-1.5935396E-1,-1.4274877E0,3.9025012E-1,-2.9428902E-1,6.611748E-1,9.687882E-2],"split_indices":[1,1,0,0,0,0,3,0,3,0,3,1,2,3,1,0,3,3,2,0,0,0,0,0,2,3,0,3,2,0,0,1,1,3,2,0,0,1,0,0,0,0,0,3,1,0,0,0,0,0,0,0,0,0,0,0,0,0,0,0,0,0,0,0,0,0,0,0,0,0,0],"split_type":[0,0,0,0,0,0,0,0,0,0,0,0,0,0,0,0,0,0,0,0,0,0,0,0,0,0,0,0,0,0,0,0,0,0,0,0,0,0,0,0,0,0,0,0,0,0,0,0,0,0,0,0,0,0,0,0,0,0,0,0,0,0,0,0,0,0,0,0,0,0,0],"sum_hessian":[2.449E3,2.398E3,5.1E1,2.387E3,1.1E1,3.7E1,1.4E1,1.341E3,1.046E3,4E0,7E0,2.9E1,8E0,7E0,7E0,1.207E3,1.34E2,1.025E3,2.1E1,2E0,2E0,2E0,5E0,3E0,2.6E1,6E0,2E0,4E0,3E0,1E0,6E0,1.188E3,1.9E1,2.8E1,1.06E2,1.001E3,2.4E1,1.9E1,2E0,1E0,1E0,1E0,4E0,1.9E1,7E0,5E0,1E0,1E0,3E0,1E0,2E0,6.79E2,5.09E2,9E0,1E1,1.6E1,1.2E1,6E0,1E2,3.6E1,9.65E2,1.3E1,1.1E1,1.5E1,4E0,1.4E1,5E0,5E0,2E0,2E0,1E0],"tree_param":{"num_deleted":"0","num_feature":"4","num_nodes":"71","size_leaf_vector":"1"}},{"base_weights":[1.4325857E-2,1.5557476E0,-4.7807023E-3,3.8766418E0,8.03837E-3,-6.915954E-1,3.544567E-2,2.2841368E0,-1.1294699E0,-3.6650476E0,2.4560926E0,-1.9798498E0,3.1759682E-1,3.0764303E0,-2.2292559E-3,8.3157676E-1,-3.7731466E0,-1.5290533E0,-7.014924E-1,4.009601E0,-5.2073973E-1,5.0006926E-2,-4.228977E0,-1.0699183E0,1.9735407E0,4.006192E0,-1.8020953E0,-3.066151E0,1.2744253E-2,-1.4537945E-1,-1.412339E0,1.3187428E-1,1.3370421E0,3.629202E-1,-6.232901E-1,-6.269931E-1,2.5574346E0,-9.760061E0,-1.9205177E0,4.444614E0,-1.7673589E0,5.5637407E0,-4.008385E-1,7.8709316E-1,7.164746E0,2.3511684E0,-4.5312405E0,-5.1863986E-1,7.318223E-2,6.003465E-1,-4.0441072E-1,-1.6995642E-1,1.1760964E0,-6.236172E-1,-3.1681304E0,-1.1770916E0,3.5588095E-1,2.6020804E-1,1.5366263E0,-1.5682839E0,-4.920311E-2,4.07276E0,9.2911947E-1,-1.040175E0,3.7839106E-1,-1.3806608E0,1.0209095E0,4.971941E0,3.4253395E-1,9.4257265E-2,9.6376854E-1,-2.5950148E0,-6.3561505E-1,-2.4102828E-1,8.640484E-1,2.3625323E-1,2.1560693E-3],"categories":[],"categories_nodes":[],"categories_segments":[],"categories_sizes":[],"default_left":[0,0,0,0,0,0,0,0,0,0,0,0,0,0,0,0,0,0,0,0,0,0,0,0,0,0,0,0,0,0,0,0,0,0,0,0,0,0,0,0,0,0,0,0,0,0,0,0,0,0,0,0,0,0,0,0,0,0,0,0,0,0,0,0,0,0,0,0,0,0,0,0,0,0,0,0,0],"id":16,"left_children":[1,3,5,7,9,11,13,-1,15,17,19,21,23,25,27,-1,29,-1,-1,31,33,35,37,39,41,43,-1,45,47,-1,-1,-1,-1,-1,-1,49,51,53,55,57,59,61,63,65,67,69,71,73,75,-1,-1,-1,-1,-1,-1,-1,-1,-1,-1,-1,-1,-1,-1,-1,-1,-1,-1,-1,-1,-1,-1,-1,-1,-1,-1,-1,-1],"loss_changes":[7.216304E1,1.0773091E2,6.6912056E1,2.3310242E2,1.7984805E2,1.748417E2,2.6214044E2,0E0,7.234299E1,3.2789764E0,5.7582367E1,2.6957043E2,1.767327E2,2.6053674E2,1.03768456E2,0E0,1.0013184E1,0E0,0E0,1.0813141E1,1.5984202E1,5.592441E1,3.3876755E2,1.6938968E2,3.0058752E2,2.5872076E2,0E0,9.795914E1,7.2330574E1,0E0,0E0,0E0,0E0,0E0,0E0,5.19678E1,3.2024124E1,2.7231262E1,1.3534317E2,7.674782E0,2.0996637E2,2.3464105E2,1.165031E2,2.1303435E2,7.1774036E2,4.2545586E0,7.11035E1,2.2493948E2,9.531617E1,0E0,0E0,0E0,0E0,0E0,0E0,0E0,0E0,0E0,0E0,0E0,0E0,0E0,0E0,0E0,0E0,0E0,0E0,0E0,0E0,0E0,0E0,0E0,0E0,0E0,0E0,0E0,0E0],"parents":[2147483647,0,0,1,1,2,2,3,3,4,4,5,5,6,6,8,8,9,9,10,10,11,11,12,12,13,13,14,14,16,16,19,19,20,20,21,21,22,22,23,23,24,24,25,25,27,27,28,28,35,35,36,36,37,37,38,38,39,39,40,40,41,41,42,42,43,43,44,44,45,45,46,46,47,47,48,48],"right_children":[2,4,6,8,10,12,14,-1,16,18,20,22,24,26,28,-1,30,-1,-1,32,34,36,38,40,42,44,-1,46,48,-1,-1,-1,-1,-1,-1,50,52,54,56,58,60,62,64,66,68,70,72,74,76,-1,-1,-1,-1,-1,-1,-1,-1,-1,-1,-1,-1,-1,-1,-1,-1,-1,-1,-1,-1,-1,-1,-1,-1,-1,-1,-1,-1],"split_conditions":[6.9899354E0,1E-1,9.028754E0,2.528404E2,1.5453671E2,1E-1,9.227524E0,2.2841368E0,-6.057917E0,2E-1,-1.0120834E0,-6.245834E-1,4.9608335E0,3.1728076E2,9.339208E0,8.3157676E-1,5.991594E0,-1.5290533E0,-7.014924E-1,-1.1826665E1,5E-1,3.0238806E2,5.837917E0,-6.9620843E0,1E0,1.2861125E2,-1.8020953E0,-3.0620835E0,-5.012083E0,-1.4537945E-1,-1.412339E0,1.3187428E-1,1.3370421E0,3.629202E-1,-6.232901E-1,2.5535806E2,-6.9620843E0,5.285328E0,1.4437347E2,-1.1826665E1,6E-1,5.837917E0,1.32525015E1,9.65E-1,2.0319856E2,-5.2058334E0,2.0233333E0,3.3669073E2,-1.8849999E0,6.003465E-1,-4.0441072E-1,-1.6995642E-1,1.1760964E0,-6.236172E-1,-3.1681304E0,-1.1770916E0,3.5588095E-1,2.6020804E-1,1.5366263E0,-1.5682839E0,-4.920311E-2,4.07276E0,9.2911947E-1,-1.040175E0,3.7839106E-1,-1.3806608E0,1.0209095E0,4.971941E0,3.4253395E-1,9.4257265E-2,9.6376854E-1,-2.5950148E0,-6.3561505E-1,-2.4102828E-1,8.640484E-1,2.3625323E-1,2.1560693E-3],"split_indices":[2,1,2,3,3,1,2,0,0,1,0,0,0,3,2,0,2,0,0,0,1,3,0,0,1,3,0,0,0,0,0,0,0,0,0,3,0,3,3,0,1,0,0,0,3,0,0,3,0,0,0,0,0,0,0,0,0,0,0,0,0,0,0,0,0,0,0,0,0,0,0,0,0,0,0,0,0],"split_type":[0,0,0,0,0,0,0,0,0,0,0,0,0,0,0,0,0,0,0,0,0,0,0,0,0,0,0,0,0,0,0,0,0,0,0,0,0,0,0,0,0,0,0,0,0,0,0,0,0,0,0,0,0,0,0,0,0,0,0,0,0,0,0,0,0,0,0,0,0,0,0,0,0,0,0,0,0],"sum_hessian":[2.449E3,2.9E1,2.42E3,1.1E1,1.8E1,1.33E2,2.287E3,6E0,5E0,7E0,1.1E1,5.8E1,7.5E1,2.7E1,2.26E3,2E0,3E0,2E0,5E0,7E0,4E0,3.1E1,2.7E1,4.1E1,3.4E1,2.5E1,2E0,1E1,2.25E3,1E0,2E0,1E0,6E0,2E0,2E0,2.5E1,6E0,7E0,2E1,4E0,3.7E1,1.3E1,2.1E1,1.3E1,1.2E1,2E0,8E0,2.29E2,2.021E3,5E0,2E1,2E0,4E0,1E0,6E0,1.2E1,8E0,1E0,3E0,1.1E1,2.6E1,2E0,1.1E1,7E0,1.4E1,4E0,9E0,4E0,8E0,1E0,1E0,2E0,6E0,2.12E2,1.7E1,1.7E2,1.851E3],"tree_param":{"num_deleted":"0","num_feature":"4","num_nodes":"77","size_leaf_vector":"1"}},{"base_weights":[1.1451243E-2,2.3165274E-1,-9.231204E-2,-6.86619E-3,1.0052648E0,4.8685125E-1,-2.041816E-1,1.0900219E-1,-2.2960286E0,2.812806E0,9.338728E-2,3.997965E-2,3.3904061E0,-4.8200827E0,-1.7412595E-1,8.97619E-3,3.025077E0,-3.0992436E0,3.0290985E0,8.93776E0,1.7398912E0,-2.0626068E0,8.657179E-1,-4.665156E0,2.698308E-1,7.9881945E0,-1.1438359E0,-7.308136E0,2.5920703E0,3.1799443E0,-2.0320776E-1,2.1339032E-1,-2.1062675E0,-8.4823054E-1,7.4230003E0,-5.52887E0,1.1582583E0,1.2418183E1,-6.4874405E-1,2.6551542E-1,4.6738915E0,-2.9394333E0,-1.4215901E0,-2.381378E0,1.246504E0,3.8484344E-1,-7.6058474E0,6.3803415E0,1.515603E-2,1.0049791E1,-1.7009162E0,-6.3253083E0,3.1995356E0,-1.0537726E0,-2.782999E0,1.1594682E0,6.963444E-3,7.769621E0,-1.2083422E0,-2.4554055E0,-1.3056725E-1,-2.6206778E-2,4.1815937E-1,4.8946843E-1,-9.31956E-1,-1.1385874E0,2.4827082E0,4.2537127E0,-2.452922E-1,-1.2669358E0,-3.1949756E0,1.7808186E0,-4.1262776E-1,4.055966E0,8.7119555E-1,3.2153514E-1,-1.9962435E0,2.724048E-1,3.6162922E0,-5.276442E-2,-9.465218E-1,1.5005708E-3,-6.4057297E-1,-1.5223708E0,7.795334E-2,1.7749782E0,1.7956984E-1,-8.233593E-1,1.015781E0,-3.144005E0,-8.4906495E-1,-2.6499197E-1,4.7042184E0,1.5444613E-1,-6.0561436E-1,6.024734E0,1.5096111E0,-2.4899075E0,-5.347222E-1,-5.7463235E-1,2.334377E0,7.66983E-2,2.7663844E0,1.0027919E0,-2.5171592E0,-1.995721E0,-1.2448797E-1,3.4134042E-1,-6.1752684E-2],"categories":[],"categories_nodes":[],"categories_segments":[],"categories_sizes":[],"default_left":[0,0,0,0,0,0,0,0,0,0,0,0,0,0,0,0,0,0,0,0,0,0,0,0,0,0,0,0,0,0,0,0,0,0,0,0,0,0,0,0,0,0,0,0,0,0,0,0,0,0,0,0,0,0,0,0,0,0,0,0,0,0,0,0,0,0,0,0,0,0,0,0,0,0,0,0,0,0,0,0,0,0,0,0,0,0,0,0,0,0,0,0,0,0,0,0,0,0,0,0,0,0,0,0,0,0,0,0,0],"id":17,"left_children":[1,3,5,7,9,11,13,15,17,19,21,23,25,27,29,31,33,35,-1,37,39,41,43,45,47,49,51,53,55,57,59,61,63,65,67,69,71,73,-1,75,77,79,81,83,85,87,89,91,93,95,-1,97,99,-1,-1,-1,-1,101,103,105,107,-1,-1,-1,-1,-1,-1,-1,-1,-1,-1,-1,-1,-1,-1,-1,-1,-1,-1,-1,-1,-1,-1,-1,-1,-1,-1,-1,-1,-1,-1,-1,-1,-1,-1,-1,-1,-1,-1,-1,-1,-1,-1,-1,-1,-1,-1,-1,-1],"loss_changes":[5.600102E1,1.44856E2,1.0804079E2,1.5966045E2,3.0466467E2,3.5019382E2,1.9297192E2,1.6710738E2,3.199666E2,3.9188553E2,2.0826303E2,2.5540678E2,7.596467E2,1.8491974E2,1.3613257E2,2.404235E2,3.2995215E2,2.9603976E2,0E0,3.7455585E2,2.3235321E2,1.4369324E1,1.1672168E2,1.6628244E2,3.5004666E2,5.638075E2,4.478342E2,1.9716675E1,9.719402E0,2.5107816E2,2.2512129E2,1.801185E2,1.8826836E2,3.2718497E2,5.126603E2,7.538678E1,1.4132451E2,3.4111084E1,0E0,2.1355861E2,4.893416E2,7.192169E0,2.139061E1,7.245178E1,2.4761053E2,5.6250534E1,6.642108E1,6.218435E2,2.2156609E2,7.0440674E2,0E0,6.59314E1,2.7269388E2,0E0,0E0,0E0,0E0,6.3088776E1,2.5684857E2,3.6548056E2,1.2779078E2,0E0,0E0,0E0,0E0,0E0,0E0,0E0,0E0,0E0,0E0,0E0,0E0,0E0,0E0,0E0,0E0,0E0,0E0,0E0,0E0,0E0,0E0,0E0,0E0,0E0,0E0,0E0,0E0,0E0,0E0,0E0,0E0,0E0,0E0,0E0,0E0,0E0,0E0,0E0,0E0,0E0,0E0,0E0,0E0,0E0,0E0,0E0,0E0],"parents":[2147483647,0,0,1,1,2,2,3,3,4,4,5,5,6,6,7,7,8,8,9,9,10,10,11,11,12,12,13,13,14,14,15,15,16,16,17,17,19,19,20,20,21,21,22,22,23,23,24,24,25,25,26,26,27,27,28,28,29,29,30,30,31,31,32,32,33,33,34,34,35,35,36,36,37,37,39,39,40,40,41,41,42,42,43,43,44,44,45,45,46,46,47,47,48,48,49,49,51,51,52,52,57,57,58,58,59,59,60,60],"right_children":[2,4,6,8,10,12,14,16,18,20,22,24,26,28,30,32,34,36,-1,38,40,42,44,46,48,50,52,54,56,58,60,62,64,66,68,70,72,74,-1,76,78,80,82,84,86,88,90,92,94,96,-1,98,100,-1,-1,-1,-1,102,104,106,108,-1,-1,-1,-1,-1,-1,-1,-1,-1,-1,-1,-1,-1,-1,-1,-1,-1,-1,-1,-1,-1,-1,-1,-1,-1,-1,-1,-1,-1,-1,-1,-1,-1,-1,-1,-1,-1,-1,-1,-1,-1,-1,-1,-1,-1,-1,-1,-1],"split_conditions":[1.8227708E2,1.6179987E1,1.0990322E1,1.55843E1,2.6E0,1.0759423E1,1.1113451E1,1.5281989E1,2.079E1,1.6459913E1,6.1803158E1,1.9801447E2,1E-1,2E-1,1.1183201E1,1.4512064E1,1.0300417E1,1.9000003E0,3.0290985E0,1.41379175E1,1.5369164E1,5.799999E0,4.1000004E0,-6.245834E-1,2.0319856E2,3.0082117E2,1.2E0,2.640027E2,-1.0120834E0,-3.3808339E0,1.1525623E1,1.3004922E1,5.2750003E-1,1.5546833E1,1.7098333E1,1.4841243E2,3.0999997E0,1.6418526E1,-6.4874405E-1,1.5052498E1,1.7654688E1,-1.0860001E1,1.8075441E1,1.8504139E1,5E0,1.8961821E2,5.715E0,2.0228564E2,1.0383987E1,1.1879169E0,-1.7009162E0,1.08955765E1,2.887197E2,-1.0537726E0,-2.782999E0,1.1594682E0,6.963444E-3,-1.4887082E1,3E-1,2.5759937E2,1.2015589E1,-2.6206778E-2,4.1815937E-1,4.8946843E-1,-9.31956E-1,-1.1385874E0,2.4827082E0,4.2537127E0,-2.452922E-1,-1.2669358E0,-3.1949756E0,1.7808186E0,-4.1262776E-1,4.055966E0,8.7119555E-1,3.2153514E-1,-1.9962435E0,2.724048E-1,3.6162922E0,-5.276442E-2,-9.465218E-1,1.5005708E-3,-6.4057297E-1,-1.5223708E0,7.795334E-2,1.7749782E0,1.7956984E-1,-8.233593E-1,1.015781E0,-3.144005E0,-8.4906495E-1,-2.6499197E-1,4.7042184E0,1.5444613E-1,-6.0561436E-1,6.024734E0,1.5096111E0,-2.4899075E0,-5.347222E-1,-5.7463235E-1,2.334377E0,7.66983E-2,2.7663844E0,1.0027919E0,-2.5171592E0,-1.995721E0,-1.2448797E-1,3.4134042E-1,-6.1752684E-2],"split_indices":[3,2,2,2,1,2,2,2,0,2,3,3,1,1,2,2,0,1,0,0,0,1,1,0,3,3,1,3,0,0,2,2,0,2,0,3,1,2,0,0,2,0,2,2,1,3,0,3,2,0,0,2,3,0,0,0,0,0,1,3,2,0,0,0,0,0,0,0,0,0,0,0,0,0,0,0,0,0,0,0,0,0,0,0,0,0,0,0,0,0,0,0,0,0,0,0,0,0,0,0,0,0,0,0,0,0,0,0,0],"split_type":[0,0,0,0,0,0,0,0,0,0,0,0,0,0,0,0,0,0,0,0,0,0,0,0,0,0,0,0,0,0,0,0,0,0,0,0,0,0,0,0,0,0,0,0,0,0,0,0,0,0,0,0,0,0,0,0,0,0,0,0,0,0,0,0,0,0,0,0,0,0,0,0,0,0,0,0,0,0,0,0,0,0,0,0,0,0,0,0,0,0,0,0,0,0,0,0,0,0,0,0,0,0,0,0,0,0,0,0,0],"sum_hessian":[2.449E3,7.84E2,1.665E3,6E2,1.84E2,2.69E2,1.396E3,5.72E2,2.8E1,6.1E1,1.23E2,2.34E2,3.5E1,8E0,1.388E3,5.54E2,1.8E1,2.7E1,1E0,8E0,5.3E1,3.2E1,9.1E1,1E1,2.24E2,1.7E1,1.8E1,6E0,2E0,1.1E1,1.377E3,5.06E2,4.8E1,1E1,8E0,1.7E1,1E1,6E0,2E0,3.6E1,1.7E1,1.2E1,2E1,9E0,8.2E1,4E0,6E0,8E0,2.16E2,1.5E1,2E0,8E0,1E1,3E0,3E0,1E0,1E0,5E0,6E0,4.2E1,1.335E3,4.04E2,1.02E2,1E1,3.8E1,8E0,2E0,4E0,4E0,1.5E1,2E0,3E0,7E0,5E0,1E0,3.3E1,3E0,1.2E1,5E0,1E0,1.1E1,7E0,1.3E1,4E0,5E0,9E0,7.3E1,2E0,2E0,3E0,3E0,5E0,3E0,1.74E2,4.2E1,4E0,1.1E1,5E0,3E0,5E0,5E0,1E0,4E0,4E0,2E0,1.3E1,2.9E1,7.4E1,1.261E3],"tree_param":{"num_deleted":"0","num_feature":"4","num_nodes":"109","size_leaf_vector":"1"}},{"base_weights":[1.2985233E-2,-1.2344309E-3,1.5823752E0,1.2833191E-1,-1.65641E-1,1.3895683E-1,4.0909877E0,7.3942564E-2,2.5353153E0,-3.5267448E-1,2.3751828E-1,3.885456E0,-1.121456E0,-3.2227823E-1,4.982346E0,3.0000123E-1,-3.079948E-1,4.9280133E0,-2.7428827E0,-6.530261E-1,4.8951495E-1,1.1772817E0,-3.213017E-1,2.0211126E-1,1.4194417E0,1.1333508E0,-1.9102858E0,6.3835845E0,2.9585E-1,1.14948824E-1,1.5733345E0,-3.1721842E0,-1.2947342E-1,2.6846428E0,1.7493357E1,-3.6612122E0,8.283122E-1,-1.4570422E0,-2.8284886E-1,3.647368E0,-2.3309405E-1,5.183924E0,3.7992874E-1,-5.504645E-1,2.0596042E0,-4.066459E0,5.642684E-1,3.9970323E-1,2.1939926E0,1.8217903E-1,-8.954653E-2,-1.9126856E-1,1.003609E0,-1.3449993E0,2.4899766E-1,-2.3119359E-1,1.5867382E-1,1.8037711E0,-2.7352473E-1,1.2998142E0,6.572197E0,-1.6461869E-1,-1.1945045E0,-3.1683072E-1,-1.1556265E0,1.3926128E-1,-4.8695132E-1,2.2125232E0,-4.4196302E-1,9.822224E-1,-2.0374939E-1,-4.4202942E-1,2.05111E0,5.34222E-1,-1.9965321E-1,-7.285053E-1,-1.0756547E-1,8.7666935E-1,-2.820591E-1,6.5563434E-1,-1.7261791E0,-6.589876E-1,1.2172112E0],"categories":[],"categories_nodes":[],"categories_segments":[],"categories_sizes":[],"default_left":[0,0,0,0,0,0,0,0,0,0,0,0,0,0,0,0,0,0,0,0,0,0,0,0,0,0,0,0,0,0,0,0,0,0,0,0,0,0,0,0,0,0,0,0,0,0,0,0,0,0,0,0,0,0,0,0,0,0,0,0,0,0,0,0,0,0,0,0,0,0,0,0,0,0,0,0,0,0,0,0,0,0,0],"id":18,"left_children":[1,3,5,7,9,11,13,15,17,19,21,23,25,-1,27,29,31,33,35,37,39,41,43,-1,-1,-1,45,47,-1,49,51,53,55,57,59,61,-1,63,65,67,69,71,73,75,77,79,81,-1,-1,-1,-1,-1,-1,-1,-1,-1,-1,-1,-1,-1,-1,-1,-1,-1,-1,-1,-1,-1,-1,-1,-1,-1,-1,-1,-1,-1,-1,-1,-1,-1,-1,-1,-1],"loss_changes":[5.467664E1,5.176274E1,7.909303E1,1.7772498E2,8.084175E1,7.518941E1,4.2185043E1,1.14924934E2,3.9239102E2,1.8548125E2,1.7893219E2,7.68116E0,5.3593235E1,0E0,3.290193E1,1.9680865E2,2.5269225E2,5.4499976E2,6.06529E1,1.6030724E2,4.4125555E2,4.0375845E2,1.1789537E2,0E0,0E0,0E0,6.0985813E1,1.3737457E1,0E0,